tree
version=v4
num_class=1
num_tree_per_iteration=1
label_index=0
max_feature_idx=399
objective=regression
feature_names=open_0 open_1 open_2 open_3 open_4 open_5 open_6 open_7 open_8 open_9 open_10 open_11 open_12 open_13 open_14 open_15 open_16 open_17 open_18 open_19 open_20 open_21 open_22 open_23 open_24 open_25 open_26 open_27 open_28 open_29 open_30 open_31 open_32 open_33 open_34 open_35 open_36 open_37 open_38 open_39 close_0 close_1 close_2 close_3 close_4 close_5 close_6 close_7 close_8 close_9 close_10 close_11 close_12 close_13 close_14 close_15 close_16 close_17 close_18 close_19 close_20 close_21 close_22 close_23 close_24 close_25 close_26 close_27 close_28 close_29 close_30 close_31 close_32 close_33 close_34 close_35 close_36 close_37 close_38 close_39 high_0 high_1 high_2 high_3 high_4 high_5 high_6 high_7 high_8 high_9 high_10 high_11 high_12 high_13 high_14 high_15 high_16 high_17 high_18 high_19 high_20 high_21 high_22 high_23 high_24 high_25 high_26 high_27 high_28 high_29 high_30 high_31 high_32 high_33 high_34 high_35 high_36 high_37 high_38 high_39 low_0 low_1 low_2 low_3 low_4 low_5 low_6 low_7 low_8 low_9 low_10 low_11 low_12 low_13 low_14 low_15 low_16 low_17 low_18 low_19 low_20 low_21 low_22 low_23 low_24 low_25 low_26 low_27 low_28 low_29 low_30 low_31 low_32 low_33 low_34 low_35 low_36 low_37 low_38 low_39 vol_0 vol_1 vol_2 vol_3 vol_4 vol_5 vol_6 vol_7 vol_8 vol_9 vol_10 vol_11 vol_12 vol_13 vol_14 vol_15 vol_16 vol_17 vol_18 vol_19 vol_20 vol_21 vol_22 vol_23 vol_24 vol_25 vol_26 vol_27 vol_28 vol_29 vol_30 vol_31 vol_32 vol_33 vol_34 vol_35 vol_36 vol_37 vol_38 vol_39 ma_5_0 ma_5_1 ma_5_2 ma_5_3 ma_5_4 ma_5_5 ma_5_6 ma_5_7 ma_5_8 ma_5_9 ma_5_10 ma_5_11 ma_5_12 ma_5_13 ma_5_14 ma_5_15 ma_5_16 ma_5_17 ma_5_18 ma_5_19 ma_5_20 ma_5_21 ma_5_22 ma_5_23 ma_5_24 ma_5_25 ma_5_26 ma_5_27 ma_5_28 ma_5_29 ma_5_30 ma_5_31 ma_5_32 ma_5_33 ma_5_34 ma_5_35 ma_5_36 ma_5_37 ma_5_38 ma_5_39 ma_10_0 ma_10_1 ma_10_2 ma_10_3 ma_10_4 ma_10_5 ma_10_6 ma_10_7 ma_10_8 ma_10_9 ma_10_10 ma_10_11 ma_10_12 ma_10_13 ma_10_14 ma_10_15 ma_10_16 ma_10_17 ma_10_18 ma_10_19 ma_10_20 ma_10_21 ma_10_22 ma_10_23 ma_10_24 ma_10_25 ma_10_26 ma_10_27 ma_10_28 ma_10_29 ma_10_30 ma_10_31 ma_10_32 ma_10_33 ma_10_34 ma_10_35 ma_10_36 ma_10_37 ma_10_38 ma_10_39 ma_20_0 ma_20_1 ma_20_2 ma_20_3 ma_20_4 ma_20_5 ma_20_6 ma_20_7 ma_20_8 ma_20_9 ma_20_10 ma_20_11 ma_20_12 ma_20_13 ma_20_14 ma_20_15 ma_20_16 ma_20_17 ma_20_18 ma_20_19 ma_20_20 ma_20_21 ma_20_22 ma_20_23 ma_20_24 ma_20_25 ma_20_26 ma_20_27 ma_20_28 ma_20_29 ma_20_30 ma_20_31 ma_20_32 ma_20_33 ma_20_34 ma_20_35 ma_20_36 ma_20_37 ma_20_38 ma_20_39 ma_40_0 ma_40_1 ma_40_2 ma_40_3 ma_40_4 ma_40_5 ma_40_6 ma_40_7 ma_40_8 ma_40_9 ma_40_10 ma_40_11 ma_40_12 ma_40_13 ma_40_14 ma_40_15 ma_40_16 ma_40_17 ma_40_18 ma_40_19 ma_40_20 ma_40_21 ma_40_22 ma_40_23 ma_40_24 ma_40_25 ma_40_26 ma_40_27 ma_40_28 ma_40_29 ma_40_30 ma_40_31 ma_40_32 ma_40_33 ma_40_34 ma_40_35 ma_40_36 ma_40_37 ma_40_38 ma_40_39 ma_60_0 ma_60_1 ma_60_2 ma_60_3 ma_60_4 ma_60_5 ma_60_6 ma_60_7 ma_60_8 ma_60_9 ma_60_10 ma_60_11 ma_60_12 ma_60_13 ma_60_14 ma_60_15 ma_60_16 ma_60_17 ma_60_18 ma_60_19 ma_60_20 ma_60_21 ma_60_22 ma_60_23 ma_60_24 ma_60_25 ma_60_26 ma_60_27 ma_60_28 ma_60_29 ma_60_30 ma_60_31 ma_60_32 ma_60_33 ma_60_34 ma_60_35 ma_60_36 ma_60_37 ma_60_38 ma_60_39
feature_infos=[0.89669556287296548:1] [0.89733720183484622:1] [0.89593337882426172:1] [0.89593337882426172:1] [0.89625354349101505:1] [0.89593337882426172:1] [0.89625354349101505:1] [0.89593337882426172:1] [0.89593337882426172:1] [0.89593337882426172:1] [0.89593337882426172:1] [0.89625354349101505:1] [0.89593337882426172:1] [0.89593337882426172:1] [0.89593337882426172:1] [0.89593337882426172:1] [0.89593337882426172:1] [0.89593337882426172:1] [0.89593337882426172:1] [0.89593337882426172:1] [0.89625354349101505:1] [0.89593337882426172:1] [0.89593337882426172:1] [0.89193494310483756:1] [0.88797203782881817:1] [0.88797203782881817:1] [0.88797203782881817:1] [0.88797203782881817:1] [0.88684631981024931:1] [0.88628443628768772:1] [0.88628443628768772:1] [0.88628443628768772:1] [0.88628443628768772:1] [0.88660115287387542:1] [0.88628443628768772:1] [0.88460323719269651:1] [0.88348597674091978:1] [0.88292834187027147:1] [0.88292834187027147:1] [0.88292834187027147:1] [0.89389578859074315:1] [0.89733720183484622:1] [0.89881144166012394:1] [0.89593337882426172:1] [0.90716354119365028:1] [0.89593337882426172:1] [0.91162338094317752:1] [0.89593337882426172:1] [0.89593337882426172:1] [0.89593337882426172:1] [0.89593337882426172:1] [0.90425873429762738:1] [0.89593337882426172:1] [0.89593337882426172:1] [0.89593337882426172:1] [0.89593337882426172:1] [0.89593337882426172:1] [0.89593337882426172:1] [0.89593337882426172:1] [0.89593337882426172:1] [0.90425873429762738:1] [0.89593337882426172:1] [0.89593337882426172:1] [0.89593337882426172:1] [0.89193494310483756:1] [0.88797203782881817:1] [0.88797203782881817:1] [0.88797203782881817:1] [0.88797203782881817:1] [0.88684631981024931:1] [0.88628443628768772:1] [0.88628443628768772:1] [0.88628443628768772:1] [0.89452013009819131:1] [0.88628443628768772:1] [0.88628443628768772:1] [0.88460323719269651:1] [0.88348597674091978:1] [0.88292834187027147:1] [0.88292834187027147:1] [0.89339289227939001:1] [0.89682796127261377:1] [0.89364421642973046:1] [0.89364421642973046:1] [0.90015035193752591:1] [0.89364421642973046:1] [0.90015035193752591:1] [0.89364421642973046:1] [0.89364421642973046:1] [0.89364421642973046:1] [0.89364421642973046:1] [0.90906118759764587:1] [0.89364421642973046:1] [0.89364421642973046:1] [0.89364421642973046:1] [0.89364421642973046:1] [0.89364421642973046:1] [0.89364421642973046:1] [0.89364421642973046:1] [0.89364421642973046:1] [0.90354524754577725:1] [0.89364421642973046:1] [0.89364421642973046:1] [0.89193494310483756:1] [0.88740879034269216:1] [0.88684631981024931:1] [0.88684631981024931:1] [0.88684631981024931:1] [0.88628443628768772:1] [0.88572332700796741:1] [0.88572332700796741:1] [0.88572332700796741:1] [0.88572332700796741:1] [0.90162888207752589:1] [0.88516292775859085:1] [0.88460323719269651:1] [0.88348597674091978:1] [0.88292834187027147:1] [0.88292834187027147:1] [0.8823715349456388:1] [0.89727128709013937:1] [0.89791333801691031:1] [0.89881144166012394:1] [0.89881144166012394:1] [0.89913263481186345:1] [0.89881144166012394:1] [0.89913263481186345:1] [0.89881144166012394:1] [0.89881144166012394:1] [0.89881144166012394:1] [0.89881144166012394:1] [0.89913263481186345:1] [0.89881144166012394:1] [0.89881144166012394:1] [0.89881144166012394:1] [0.89881144166012394:1] [0.89881144166012394:1] [0.89881144166012394:1] [0.89881144166012394:1] [0.89881144166012394:1] [0.89913263481186345:1] [0.89881144166012394:1] [0.89881144166012394:1] [0.8965075673136762:1] [0.89193494310483756:1] [0.8891007437034919:1] [0.8891007437034919:1] [0.8891007437034919:1] [0.88853606386899064:1] [0.88684631981024931:1] [0.88684631981024931:1] [0.88684631981024931:1] [0.88684631981024931:1] [0.88716323718731616:1] [0.88684631981024931:1] [0.88684631981024931:1] [0.88460323719269651:1] [0.88404425396682729:1] [0.88292834187027147:1] [0.88292834187027147:1] [0.012826777328158947:1] [0.012826777328158947:1] [0.012826777328158947:1] [0.015552766868497695:1] [0.012826777328158947:1] [0.012826777328158947:1] [0.012826777328158947:1] [0.012826777328158947:1] [0.012826777328158947:1] [0.012826777328158947:1] [0.012826777328158947:1] [0.012826777328158947:1] [0.012826777328158947:1] [0.012826777328158947:1] [0.012826777328158947:1] [0.012826777328158947:1] [0.012826777328158947:1] [0.012826777328158947:1] [0.012826777328158947:1] [0.012826777328158947:1] [0.016766744516324206:1] [0.016697829115692942:1] [0.016697829115692942:1] [0.016697829115692942:1] [0.016697829115692942:1] [0.016928578845747916:1] [0.016697829115692942:1] [0.016697829115692942:1] [0.016697829115692942:1] [0.016697829115692942:1] [0.016697829115692942:1] [0.016697829115692942:1] [0.016697829115692942:1] [0.016697829115692942:1] [0.016697829115692942:1] [0.016697829115692942:1] [0.016928578845747916:1] [0.020180991613381254:1] [0.021253235919473097:1] [0.017270736026280337:1] [0.90554268934214555:1] [0.90821223451344002:1] [0.91067722046789024:1] [0.91353139596613375:1] [0.91556516256060205:1] [0.91666117242460832:1] [0.91785571543699374:1] [0.91785571543699374:1] [0.92069437895509776:1] [0.91785571543699374:1] [0.92260553146650015:1] [0.91785571543699374:1] [0.91785571543699374:1] [0.91785571543699374:1] [0.91702020876814117:1] [0.91393490723863569:1] [0.91149249664701293:1] [0.90905001418384868:1] [0.90827868880147233:1] [0.90827868880147233:1] [0.90827868880147233:1] [0.90866435149266056:1] [0.90827868880147233:1] [0.90866435149266056:1] [0.90827868880147233:1] [0.90827868880147233:1] [0.90827868880147233:1] [0.90827868880147233:1] [0.90787714763440308:1] [0.90683935183626929:1] [0.90649394694985219:1] [0.90649394694985219:1] [0.90614880508490814:1] [0.90614880508490814:1] [0.90532203733108485:1] [0.90313663937153221:1] [0.90197965129796764:1] [0.90146548229074441:1] [0.90043707240475634:1] [0.90017998790114473:1] [0.90982272648477691:1] [0.91091178933045969:1] [0.91215136279211273:1] [0.91430433636992015:1] [0.9166204683384509:1] [0.91961140777400208:1] [0.92061189907157481:1] [0.9218646724925994:1] [0.92344784002481384:1] [0.92483798238105652:1] [0.92523670282301818:1] [0.92572889061741792:1] [0.92604634913978812:1] [0.92663229742236508:1] [0.92604634913978812:1] [0.92435026080603555:1] [0.92164504278394377:1] [0.91929402891596534:1] [0.91674985206682946:1] [0.91475311437495566:1] [0.91333608169252833:1] [0.91246656018935446:1] [0.91201570252267106:1] [0.91186885409282603:1] [0.91175146191082923:1] [0.91188027192232635:1] [0.91175146191082923:1] [0.91164451635038157:1] [0.91119406486271159:1] [0.9109009440612762:1] [0.9109009440612762:1] [0.9109009440612762:1] [0.91102963391369651:1] [0.91050208834966506:1] [0.90911724949743056:1] [0.90776460447538898:1] [0.90676623562945202:1] [0.90618660264199713:1] [0.90534927496901618:1] [0.90464072261680673:1] [0.9156910210840391:1] [0.91743123033033691:1] [0.91957730317622666:1] [0.92123594800102238:1] [0.92237248504153435:1] [0.92435176609486591:1] [0.92518813894293284:1] [0.92561637410692255:1] [0.92630159307538085:1] [0.92726824507606964:1] [0.92818959969074999:1] [0.92855595163744231:1] [0.92886758549101256:1] [0.9290222576931163:1] [0.9295884446313184:1] [0.93038785782381084:1] [0.93137217571123587:1] [0.93189008216117886:1] [0.92772803297890694:1] [0.9235967974177125:1] [0.91920376207406373:1] [0.91907067116194885:1] [0.91907067116194885:1] [0.91968206792577745:1] [0.91880453882443081:1] [0.91806125764158697:1] [0.91679006491849235:1] [0.91577624877663355:1] [0.91444063993491309:1] [0.91324984140679621:1] [0.91247749574313819:1] [0.91173725017881768:1] [0.911125764878432:1] [0.91070738398729012:1] [0.91032117516880262:1] [0.90977410598704278:1] [0.90935565312258393:1] [0.90922398811172955:1] [0.90874416782219825:1] [0.9081970986404384:1] [0.92436860986735447:1] [0.92566971128453823:1] [0.92722616634732979:1] [0.92884009846558857:1] [0.93060261360177476:1] [0.93209316627729943:1] [0.93369075601697848:1] [0.93531594041572486:1] [0.93709782166794298:1] [0.93901166456814522:1] [0.94082655436892448:1] [0.94247764442562487:1] [0.94411812330368705:1] [0.94586699600734403:1] [0.94771489435668443:1] [0.94943075851178016:1] [0.95109714611716456:1] [0.95284601882082143:1] [0.9546444406204504:1] [0.95445514033306722:1] [0.95184757527425901:1] [0.9496022603554104:1] [0.94738335528959539:1] [0.9450646415513585:1] [0.94263140499002152:1] [0.94005614229707857:1] [0.93760274517600528:1] [0.93513131859301679:1] [0.9327494569568977:1] [0.93047124186902497:1] [0.92826482544008082:1] [0.92623511788007451:1] [0.92428945482269209:1] [0.92379840558157933:1] [0.92124111318268487:1] [0.91872428862387479:1] [0.91735263564655578:1] [0.91484435972216871:1] [0.91231755732176467:1] [0.90979204662525281:1] [0.93394848733506675:1] [0.93489676327642457:1] [0.93580836920956478:1] [0.93690986918640962:1] [0.93800600088082775:1] [0.93930827462042843:1] [0.94055629291897069:1] [0.94193450996063333:1] [0.94322597555828169:1] [0.94469101562105762:1] [0.94603129680023879:1] [0.94744752128148202:1] [0.94900780966188725:1] [0.9505948496194323:1] [0.95231329020506639:1] [0.95417548612672298:1] [0.95604047753868093:1] [0.95772617127515713:1] [0.95950609108362461:1] [0.96127024645168613:1] [0.96290399549677164:1] [0.96189953175387921:1] [0.9601274525736323:1] [0.95836616852483947:1] [0.95663288702893601:1] [0.95487801350671941:1] [0.95317735523474401:1] [0.95144421141738289:1] [0.94970857682446319:1] [0.94800290856491265:1] [0.94629336435833411:1] [0.94459382979036577:1] [0.94290541622810675:1] [0.9412492543158768:1] [0.93962237732117537:1] [0.93782229628830505:1] [0.93598156644087238:1] [0.93425723516486014:1] [0.93254340815017123:1] [0.93088252829053086:1]
tree_sizes=1278 1260 1262 1266 1267 1269 1261 1268 1275 1272 1268 1274 1269 1271 1264 1277 1274 1274 1271 1285 1275 1281 1272 1276 1286 1272 1289 1281 1283 1285 1259 1280 1284 1281 1296 1273 1278 1280 1288 1287 1285 1294 1292 1295 1289 1295 1293 1270 1294 1287 1288 1294 1295 1290 1285 1291 1286 1276 1288 1293 1293 1289 1287 1288 1281 1298 1290 1293 1293 1280 1294 1282 1286 1270 1289 1291 1279 1290 1292 1275 1283 1298 1288 1295 1282 1305 1284 1271 1307 1278 1288 1273 1287 1287 1303 1272 1286 1259 1270 1295

Tree=0
num_leaves=12
num_cat=0
split_feature=40 7 87 40 321 7 120 7 127 7 165
split_gain=0.230237 0.148413 0.0776153 0.0648405 0.0565386 0.0400036 0.0272705 0.0359266 0.0295888 0.0240169 0.0187347
threshold=0.99385618735857639 0.99016259636452142 0.99350310734303993 0.98273918736249388 0.97082916436611366 0.97933437014773284 0.98426952717107008 0.98334709266473652 0.9835133337098686 0.99507971305103315 0.40705291766774537
decision_type=2 2 2 2 2 2 2 2 2 2 2
left_child=2 5 4 -4 10 -2 7 -6 -8 -3 -1
right_child=1 9 3 -5 6 -7 8 -9 -10 -11 -12
leaf_value=0.00069361318391629662 -0.002406296146059775 -0.00038437343436919483 0.0020093132995795257 0.00060092121732593701 0.00012827752754720256 -0.0010132990157349685 -0.00071926871558143722 0.00080384709488185758 4.0519574827036342e-05 3.337294797020928e-05 0.0017684251765741161
leaf_weight=625 240 2393 390 2020 3308 1462 600 1033 3517 3239 219
leaf_count=625 240 2393 390 2020 3308 1462 600 1033 3517 3239 219
internal_value=4.79515e-05 -0.000391419 0.000323083 0.000828835 0.000192051 -0.00120973 0.000114171 0.000289038 -7.02098e-05 -0.000144125 0.000972504
internal_weight=0 7334 11712 2410 9302 1702 8458 4341 4117 5632 844
internal_count=19046 7334 11712 2410 9302 1702 8458 4341 4117 5632 844
is_linear=0
shrinkage=1


Tree=1
num_leaves=12
num_cat=0
split_feature=40 46 46 1 87 40 7 40 46 323 46
split_gain=0.188415 0.115961 0.0621431 0.0649689 0.0585967 0.0559141 0.0343997 0.0286709 0.0271787 0.0234088 0.0230913
threshold=0.99550657812387866 0.989590823181692 0.99441193468982136 0.98193176472791244 0.98321690985959143 0.98508689616471912 0.98486834948669677 0.96475044454556491 0.97554685260246843 0.9645754612049805 0.99486362487534308
decision_type=2 2 2 2 2 2 2 2 2 2 2
left_child=2 8 3 4 9 -4 -5 -6 -2 -1 -3
right_child=1 10 5 6 7 -7 -8 -9 -10 -11 -12
leaf_value=0.0010282105914584208 -0.0029363283636764841 -0.00053177341054478657 0.001822938940623838 -0.0005654109794809998 0.0028677833535854357 0.00046878049235541877 1.5236003186586245e-05 0.00092057271790048725 -0.001236462230487477 0.00013285119100117407 -8.5106908271670434e-05
leaf_weight=319 104 1884 356 1313 83 2125 4577 850 984 3450 3001
leaf_count=319 104 1884 356 1313 83 2125 4577 850 984 3450 3001
internal_value=0 -0.000465315 0.0002126 0.000107081 0.000384272 0.000663089 -0.000114202 0.0010938 -0.00139895 0.000208632 -0.000257373
internal_weight=0 5973 13073 10592 4702 2481 5890 933 1088 3769 4885
internal_count=19046 5973 13073 10592 4702 2481 5890 933 1088 3769 4885
is_linear=0
shrinkage=0.1


Tree=2
num_leaves=12
num_cat=0
split_feature=201 7 7 1 120 87 127 80 208 7 1
split_gain=0.148983 0.108085 0.0590744 0.0428586 0.0428473 0.0473326 0.0283518 0.0267018 0.0236089 0.0211098 0.0158956
threshold=0.99434294210134488 0.988598315230382 0.99208160050442762 0.9802389945470682 0.97488180290823923 0.97743753822406865 0.97508283170084287 0.95764201564166329 0.99592395452876403 0.97691975442437928 0.98662150560041229
decision_type=2 2 2 2 2 2 2 2 2 2 2
left_child=2 6 4 -4 5 -1 -2 -7 -3 -6 -11
right_child=1 8 3 -5 9 7 -8 -9 -10 10 -12
leaf_value=0.00024219872767609554 -0.002244240804712343 -0.00033478083908824004 0.0019813095178735272 0.00057591118825675266 -0.0005305072583743028 0.0030482527584615739 -0.00088119060235926784 0.0010061249389834096 2.4231018183158279e-05 0.00020865076734735921 -0.00017674963224941355
leaf_weight=2030 170 3196 246 1840 710 73 1491 521 4291 2709 1769
leaf_count=2030 170 3196 246 1840 710 73 1491 521 4291 2709 1769
internal_value=0 -0.000290923 0.000268879 0.000741648 0.000142637 0.000471942 -0.0010207 0.00125709 -0.000129022 -2.39197e-05 5.64013e-05
internal_weight=0 9148 9898 2086 7812 2624 1661 594 7487 5188 4478
internal_count=19406 9148 9898 2086 7812 2624 1661 594 7487 5188 4478
is_linear=0
shrinkage=0.1


Tree=3
num_leaves=12
num_cat=0
split_feature=40 46 46 40 324 46 40 166 46 1 40
split_gain=0.136141 0.105634 0.0675145 0.0340766 0.033615 0.0269626 0.0249299 0.0179345 0.0157353 0.0137917 0.0124065
threshold=0.99079041536942014 0.98862507713862524 0.99131339731908397 0.97827626651433852 0.97192952011689504 0.97248196054276537 0.99835905718969042 0.34138520288830132 0.99552067729754801 0.95688660408266812 0.97951248791204659
decision_type=2 2 2 2 2 2 2 2 2 2 2
left_child=2 5 4 -4 7 -2 8 -1 -3 -9 -6
right_child=1 6 3 -5 10 -7 -8 9 -10 -11 -12
leaf_value=0.00040251499000475534 -0.0028784542704621951 -0.00015118368338554148 0.0020299075376790238 0.00066011733219804001 0.00020533480837562582 -0.00093375214186612566 -0.00036981442697875291 0.002172777950181626 0.00019115429922633384 0.00076205397341113127 -6.5877142364130704e-05
leaf_weight=515 75 2993 204 1655 3266 1443 2692 126 2435 154 3488
leaf_count=515 75 2993 204 1655 3266 1443 2692 126 2435 154 3488
internal_value=0 -0.000264148 0.000270606 0.000810433 0.000137669 -0.00102983 -0.000121006 0.000752732 2.38909e-06 0.00139688 6.52715e-05
internal_weight=0 9638 9408 1859 7549 1518 8120 795 5428 280 6754
internal_count=19046 9638 9408 1859 7549 1518 8120 795 5428 280 6754
is_linear=0
shrinkage=0.1


Tree=4
num_leaves=12
num_cat=0
split_feature=40 7 87 40 120 86 7 127 40 40 7
split_gain=0.113466 0.0759835 0.0459451 0.0449149 0.028665 0.0297303 0.0257037 0.0187589 0.0172838 0.0133758 0.0113874
threshold=0.99321530090095811 0.99102025069130006 0.99068718682682677 0.97845463267545296 0.97488180290823923 0.97736086300803382 0.98214703512205181 0.97261672039205926 0.96214765889482623 0.98794634485828026 0.996446994653158
decision_type=2 2 2 2 2 2 2 2 2 2 2
left_child=2 6 4 -4 5 -1 -2 -6 -7 -5 -3
right_child=1 10 3 9 7 8 -8 -9 -10 -11 -12
leaf_value=0.00019671241165817853 -0.001512828898469313 -0.00022013401208309069 0.0016655806022542485 0.00069391665867821314 -0.00098468280754916899 0.0025624148142726526 -0.00063114067252246088 -2.0347090168834493e-05 0.00083274098961904285 0.00024788141600699207 6.5658979460599324e-05
leaf_weight=2114 409 3352 309 1018 210 69 1726 5117 355 1980 2387
leaf_count=2114 409 3352 309 1018 210 69 1726 5117 355 1980 2387
internal_value=0 -0.000290736 0.00020491 0.000517652 7.34113e-05 0.000349992 -0.000800045 -5.8363e-05 0.00111422 0.000399337 -0.000101265
internal_weight=0 7874 11172 3307 7865 2538 2135 5327 424 2998 5739
internal_count=19046 7874 11172 3307 7865 2538 2135 5327 424 2998 5739
is_linear=0
shrinkage=0.1


Tree=5
num_leaves=12
num_cat=0
split_feature=40 46 46 40 46 46 40 323 40 46 40
split_gain=0.09632 0.0498929 0.0319412 0.0362709 0.0360836 0.0271516 0.0270592 0.0217035 0.0186162 0.0171226 0.0117705
threshold=0.99665635659346452 0.98666227793858374 0.99562007664400676 0.98619410771417104 0.98555424567119776 0.98598161351839175 0.98807820484671682 0.970365365183114 0.97319483716383293 0.99394189027915103 0.96676871669046915
decision_type=2 2 2 2 2 2 2 2 2 2 2
left_child=2 -2 3 4 7 -5 10 -1 -6 -3 -4
right_child=1 9 6 5 8 -7 -8 -9 -10 -11 -12
leaf_value=0.0006502653061284721 -0.0012739428333274807 -0.00053447213088117181 0.0034349125301973388 -0.00061929851185859317 0.0017661545412443209 -2.2514565973165888e-05 0.00030694706719282012 2.2620204378381166e-05 0.00055467047645492049 -0.00012009577269187027 0.0010616283983269114
leaf_weight=631 556 1550 22 915 141 4570 1843 4342 1263 2796 417
leaf_count=631 556 1550 22 915 141 4570 1843 4342 1263 2796 417
internal_value=0 -0.000381993 0.000132391 6.64779e-05 0.000228652 -0.000122069 0.000475009 0.000102259 0.000676337 -0.000267883 0.00118056
internal_weight=0 4902 14144 11862 6377 5485 2282 4973 1404 4346 439
internal_count=19046 4902 14144 11862 6377 5485 2282 4973 1404 4346 439
is_linear=0
shrinkage=0.1


Tree=6
num_leaves=12
num_cat=0
split_feature=40 126 7 1 87 1 7 40 7 1 40
split_gain=0.0782101 0.0399708 0.0262842 0.0315016 0.0326562 0.0271329 0.0233852 0.0164698 0.0143074 0.0131394 0.0112955
threshold=0.99614017516808373 0.9913598491093053 0.99389070677217528 0.97999788100826102 0.98065617736464106 0.98685875192803418 0.98076394710811188 0.97011525554319744 0.97813378895584824 0.98954892737918521 0.97145907004401533
decision_type=2 2 2 2 2 2 2 2 2 2 2
left_child=2 8 3 4 -1 10 -5 -6 -2 -8 -4
right_child=1 -3 5 6 7 -7 9 -9 -10 -11 -12
leaf_value=0.00011182629294372994 -0.0016402487318715178 -0.00016397599828102329 0.002428665001822922 -0.000631005902392793 0.0015361767724997508 0.00024749532664276674 0.00012706623554294369 0.00055064753826964514 -0.00066718901110242844 -0.00017830150155440756 0.00087704146958761462
leaf_weight=3152 173 4000 52 709 222 2706 2893 718 1194 2747 480
leaf_count=3152 173 4000 52 709 222 2706 2893 718 1194 2747 480
internal_value=0 -0.000323512 0.000126931 4.97364e-05 0.000266098 0.000375847 -8.97109e-05 0.0007834 -0.000790334 -2.16652e-05 0.0010287
internal_weight=0 5367 13679 10441 4092 3238 6349 940 1367 5640 532
internal_count=19046 5367 13679 10441 4092 3238 6349 940 1367 5640 532
is_linear=0
shrinkage=0.1


Tree=7
num_leaves=12
num_cat=0
split_feature=40 46 46 282 46 87 40 40 46 40 40
split_gain=0.0654371 0.0508235 0.0350436 0.0206861 0.0200093 0.0182745 0.0213801 0.0171584 0.0118502 0.0251411 0.0142275
threshold=0.99225162849234383 0.99157662350726161 0.99226471216823475 0.96644557779894902 0.98303821192391627 0.96576235754162087 0.95166919482947809 0.97518755991581518 0.97941612176743598 0.97887152494915453 0.97745027375749516
decision_type=2 2 2 2 2 2 2 2 2 2 2
left_child=2 4 3 5 -2 -1 -7 -4 10 -10 -5
right_child=1 -3 7 8 -6 6 -8 -9 9 -11 -12
leaf_value=0.00020862587445073875 -0.0012186220905415486 -5.2807407602164163e-05 0.0017442412225396504 -4.9459602291477617e-06 -0.00046100240736392543 0.0026002971664405407 0.00067110777140525673 0.00047091125106381548 0.00064656806095264357 2.0658884772071208e-05 -0.00052069348701034332
leaf_weight=562 423 6210 112 2072 1982 78 218 1920 765 3983 721
leaf_count=562 423 6210 112 2072 1982 78 218 1920 765 3983 721
internal_value=0 -0.00020396 0.000168452 7.82966e-05 -0.000594255 0.000543558 0.00117948 0.000541095 2.53601e-05 0.000121506 -0.000138084
internal_weight=0 8615 10431 8399 2405 858 296 2032 7541 4748 2793
internal_count=19046 8615 10431 8399 2405 858 296 2032 7541 4748 2793
is_linear=0
shrinkage=0.1


Tree=8
num_leaves=12
num_cat=0
split_feature=40 126 323 7 40 1 166 80 7 1 40
split_gain=0.0556418 0.021658 0.019762 0.0205952 0.0289229 0.0201735 0.0136977 0.0126376 0.00921476 0.0128511 0.00875581
threshold=0.99767942200767001 0.98619685930600343 0.97312638146890396 0.99007908340965511 0.98807820484671682 0.98836253546711272 0.34359771685047952 0.95871944463045644 0.97933437014773284 0.97559249201634468 0.9761241700432729
decision_type=2 2 2 2 2 2 2 2 2 2 2
left_child=2 -2 6 5 -5 8 -1 -8 10 -10 -4
right_child=1 -3 3 4 -6 -7 7 -9 9 -11 -12
leaf_value=0.00022734811278718797 -0.00097810024474038874 -0.00024840246884367032 1.6875945522188699e-05 0.00060869335236055815 8.1767797258449436e-05 -0.00034488338989246059 0.0016479087054234521 0.00049483012716528289 0.00074172494829681946 8.4323532522205503e-05 -0.00038688249189052702
leaf_weight=654 460 3514 1918 1290 5412 1850 163 228 338 2473 746
leaf_count=654 460 3514 1918 1290 5412 1850 163 228 338 2473 746
internal_value=0 -0.000332867 8.77662e-05 5.65122e-05 0.00018319 -5.93919e-05 0.000507288 0.000975525 3.70756e-05 0.000163371 -9.61885e-05
internal_weight=0 3974 15072 14027 6702 7325 1045 391 5475 2811 2664
internal_count=19046 3974 15072 14027 6702 7325 1045 391 5475 2811 2664
is_linear=0
shrinkage=0.1


Tree=9
num_leaves=12
num_cat=0
split_feature=40 46 46 40 46 46 40 46 40 46 40
split_gain=0.0459061 0.0328492 0.0227448 0.0164681 0.0337165 0.0188766 0.0135221 0.0134251 0.0120299 0.00911166 0.0148104
threshold=0.99462223269782879 0.99250267536089287 0.99447797041281571 0.97215841342269493 0.97374977162838083 0.9720224883995271 0.98034079227746929 0.96787748598431878 0.95529459391257021 0.9871594593489238 0.98525600479232478
decision_type=2 2 2 2 2 2 2 2 2 2 2
left_child=2 7 3 4 -1 -5 -4 -2 -6 -7 -11
right_child=1 -3 6 5 8 9 -8 -9 -10 10 -12
leaf_value=8.2823792909467877e-05 -0.0023061226055558241 -6.0214558929723823e-05 0.0012912748681461336 -0.00084280865007627993 0.0024148118313191075 -9.6646674616815043e-05 0.00034231510498172247 -0.00050027186276166413 0.00082706504813463493 0.00052715980224367169 2.5848392782181875e-05
leaf_weight=1867 42 4600 163 267 53 3804 1906 2077 479 730 3058
leaf_count=1867 42 4600 163 267 53 3804 1906 2077 479 730 3058
internal_value=0 -0.000210286 0.000114619 5.36146e-05 0.000282943 -1.63892e-05 0.000417076 -0.000536065 0.000985243 1.26748e-05 0.000122458
internal_weight=0 6719 12327 10258 2399 7859 2069 2119 532 7592 3788
internal_count=19046 6719 12327 10258 2399 7859 2069 2119 532 7592 3788
is_linear=0
shrinkage=0.1


Tree=10
num_leaves=12
num_cat=0
split_feature=40 46 46 46 40 1 46 7 46 40 40
split_gain=0.0390063 0.0363416 0.0263445 0.0162953 0.0154027 0.0132915 0.0272461 0.0127583 0.0108524 0.0106528 0.00859562
threshold=0.9904949435327165 0.98555424567119776 0.98883806003790242 0.99720680446453713 0.97215841342269493 0.96967639342156275 0.97034502843007853 0.9700445677122923 0.96171573255490028 0.94661486747850743 0.99862208438552336
decision_type=2 2 2 2 2 2 2 2 2 2 2
left_child=2 8 5 10 -4 6 -1 -7 -2 -8 -3
right_child=1 3 4 -5 -6 7 9 -9 -10 -11 -12
leaf_value=5.8827675657164214e-05 -0.0028713163919746876 -8.4260052660039194e-05 0.0015538836175804599 0.00015598433232459578 0.00036520973454599892 -0.00075193445839710077 0.0028430834645405412 -1.0612818591206971e-05 -0.00071299328908043091 0.00082705269874212535 -0.00033044489540586452
leaf_weight=1491 24 4806 114 2202 2491 245 28 4428 795 410 2012
leaf_count=1491 24 4806 114 2202 2491 245 28 4428 795 410 2012
internal_value=0 -0.000138436 0.000147939 -8.05246e-05 0.000417228 4.16832e-05 0.000262525 -4.94795e-05 -0.000776241 0.000955931 -0.000156909
internal_weight=0 9839 9207 9020 2605 6602 1929 4673 819 438 6818
internal_count=19046 9839 9207 9020 2605 6602 1929 4673 819 438 6818
is_linear=0
shrinkage=0.1


Tree=11
num_leaves=12
num_cat=0
split_feature=40 46 46 40 46 46 40 40 46 46 40
split_gain=0.0327027 0.0165978 0.0165197 0.0163571 0.0233162 0.0194349 0.00997529 0.00837561 0.0188988 0.00789947 0.00736556
threshold=0.99717095641973563 0.99287607899553076 0.99726603851878126 0.98311020185102227 0.98247921745294542 0.98335294429724984 0.9673882898214583 0.94487236470616198 0.94721941103910101 0.96976175473630299 0.98945046832977923
decision_type=2 2 2 2 2 2 2 2 2 2 2
left_child=2 9 3 4 7 -5 -6 8 -1 -2 -4
right_child=1 -3 10 5 6 -7 -8 -9 -10 -11 -12
leaf_value=4.181627450016602e-05 -0.0018656982063520247 -9.2662868428177814e-05 0.00080353707583488893 -0.00052556230887229355 0.0015547747211007591 -1.9705731581304821e-06 0.0004593638257886219 1.8671441605009914e-06 0.0015406929257818882 -0.00045948516766161781 0.00026893318225111932
leaf_weight=287 41 2839 338 788 89 7064 1261 3578 119 1557 1085
leaf_count=287 41 2839 338 788 89 7064 1261 3578 119 1557 1085
internal_value=0 -0.000237769 7.22145e-05 3.72815e-05 0.000172414 -5.45165e-05 0.00053158 5.07089e-05 0.000481142 -0.000495564 0.000395916
internal_weight=0 4437 14609 13186 5334 7852 1350 3984 406 1598 1423
internal_count=19046 4437 14609 13186 5334 7852 1350 3984 406 1598 1423
is_linear=0
shrinkage=0.1


Tree=12
num_leaves=12
num_cat=0
split_feature=40 46 46 40 46 40 46 46 46 40 40
split_gain=0.0275238 0.0280902 0.0210863 0.011814 0.010403 0.00980452 0.0158409 0.00944187 0.00914974 0.0076491 0.00693833
threshold=0.98981027801294219 0.98764468087687607 0.98794757495063024 0.96295417122573912 0.99640108307417952 0.97518755991581518 0.97455129915903205 0.96460039180576518 0.97524376586813621 0.96475044454556491 0.984033664392437
decision_type=2 2 2 2 2 2 2 2 2 2 2
left_child=2 7 5 -4 -3 6 -1 -2 -7 -8 -5
right_child=1 4 3 10 -6 8 9 -9 -10 -11 -12
leaf_value=2.951229006664476e-05 -0.0021117946057504899 -0.00012358539033746345 0.00217190978065547 0.00058878226154279018 0.00010420807235028375 -0.00059165918462348948 0.0012951354600088903 -0.00049193916681048442 -3.1468436251002991e-05 0.0004245241025387259 0.00023260442938472347
leaf_weight=2147 37 5937 36 807 3027 323 121 1310 2996 608 1697
leaf_count=2147 37 5937 36 807 3027 323 121 1310 2996 608 1697
internal_value=0 -0.000110645 0.000130609 0.000373254 -4.66632e-05 3.11218e-05 0.000166267 -0.000536434 -8.59853e-05 0.000569029 0.000347395
internal_weight=0 10311 8735 2540 8964 6195 2876 1347 3319 729 2504
internal_count=19046 10311 8735 2540 8964 6195 2876 1347 3319 729 2504
is_linear=0
shrinkage=0.1


Tree=13
num_leaves=12
num_cat=0
split_feature=40 46 40 46 46 46 120 46 7 40 40
split_gain=0.0248262 0.0121185 0.0129093 0.0161993 0.016 0.00885656 0.00777955 0.0180994 0.00870812 0.00668912 0.00663242
threshold=0.99894165588602846 0.99830794941751722 0.98473114541954654 0.98401830483598107 0.98433572593211416 0.98477474378511853 0.96005104160002164 0.96256245408422647 0.96623788280646961 0.93978649603224229 0.96676871669046915
decision_type=2 2 2 2 2 2 2 2 2 2 2
left_child=1 2 3 6 -4 -2 7 -1 -8 -9 -10
right_child=5 -3 4 -5 -6 -7 8 9 10 -11 -12
leaf_value=8.2958866277717651e-05 -0.00079059084848075222 0.0003489083940207694 -0.00046154683847919988 0.00042289412181223624 -9.8109709069387928e-06 -0.00021615005038427078 -0.00044391337978451042 0.0026999454572796825 0.0004622261948890483 0.00094178665855245791 -1.9052570665460331e-05
leaf_weight=800 302 1226 866 1484 8287 2412 441 25 320 161 2722
leaf_count=800 302 1226 866 1484 8287 2412 441 25 320 161 2722
internal_value=0 4.65413e-05 2.20012e-05 0.000136629 -5.25514e-05 -0.000280071 4.15706e-05 0.000289547 -2.86289e-05 0.0011781 3.1575e-05
internal_weight=0 16332 15106 5953 9153 2714 4469 986 3483 186 3042
internal_count=19046 16332 15106 5953 9153 2714 4469 986 3483 186 3042
is_linear=0
shrinkage=0.1


Tree=14
num_leaves=12
num_cat=0
split_feature=40 46 46 1 46 46 40 120 7 46 7
split_gain=0.0205293 0.0111122 0.0107732 0.00946044 0.014152 0.0117712 0.00628048 0.00601158 0.013557 0.00573698 0.00549
threshold=0.9967796955598206 0.99343201967014594 0.99672533174824618 0.98112511593955032 0.98109249879488492 0.98190455531548093 0.96609605996725356 0.93756421077770502 0.94530207051821702 0.97714989461051338 0.96524691632208837
decision_type=2 2 2 2 2 2 2 2 2 2 2
left_child=2 9 3 4 7 10 -6 8 -1 -2 -5
right_child=1 -3 -4 5 6 -7 -8 -9 -10 -11 -12
leaf_value=0.00010276208386913756 -0.0010458142038876727 -5.7959954720787126e-05 0.00030298773187526764 -0.0019136878742795926 0.0012389209884357578 5.3046527205939427e-06 0.00038411670457312125 1.1677983383995792e-05 0.0020025582226412555 -0.00032522352885132181 -0.0003471133639587888
leaf_weight=151 118 2917 1618 23 94 7294 1004 3225 50 1735 817
leaf_count=151 118 2917 1618 23 94 7294 1004 3225 50 1735 817
internal_value=0 -0.00017961 6.00125e-05 2.89543e-05 0.000144876 -3.55193e-05 0.000457297 4.4748e-05 0.000575348 -0.000371111 -0.000390008
internal_weight=0 4770 14276 12658 4524 8134 1098 3426 201 1853 840
internal_count=19046 4770 14276 12658 4524 8134 1098 3426 201 1853 840
is_linear=0
shrinkage=0.1


Tree=15
num_leaves=12
num_cat=0
split_feature=40 46 46 40 46 46 40 46 1 200 7
split_gain=0.0177947 0.0156909 0.0134526 0.00745904 0.0103878 0.00720745 0.00710193 0.00656425 0.00618308 0.00553614 0.00906538
threshold=0.99200518543964622 0.99097364169194635 0.99056474077057388 0.97951248791204659 0.97798371599538803 0.96043706806028861 0.96214765889482623 0.97774249471730224 0.96587621877670571 0.95381906400784311 0.95715241752532731
decision_type=2 2 2 2 2 2 2 2 2 2 2
left_child=2 5 3 4 9 -2 -4 -5 -6 10 -1
right_child=1 -3 6 7 8 -7 -8 -9 -10 -11 -12
leaf_value=9.7516184043861442e-05 -0.0022241149283945562 -2.681822818301622e-05 0.0019972563255578279 -0.00052712988522788816 0.0011045414677244567 -0.00031714215423204735 0.00026912359637809016 -4.0368728876495134e-05 0.00029885609256509048 -5.3033914169238551e-05 0.0011227943663403427
leaf_weight=428 20 6601 24 302 105 2196 2601 3353 1026 2282 108
leaf_count=428 20 6601 24 302 105 2196 2601 3353 1026 2282 108
internal_value=0 -0.000104112 8.97403e-05 2.23605e-05 0.000117645 -0.000334353 0.000284924 -8.05881e-05 0.000373654 1.48954e-05 0.000304102
internal_weight=0 8817 10229 7604 3949 2216 2625 3655 1131 2818 536
internal_count=19046 8817 10229 7604 3949 2216 2625 3655 1131 2818 536
is_linear=0
shrinkage=0.1


Tree=16
num_leaves=12
num_cat=0
split_feature=40 46 40 46 46 1 7 7 40 46 40
split_gain=0.0154095 0.0085998 0.00871325 0.0101241 0.00896537 0.00551021 0.0146 0.00842246 0.00657924 0.00470703 0.00444594
threshold=0.99945679619935746 0.99889047318256641 0.98880152508709929 0.98794757495063024 0.98727302072030276 0.96899340776162934 0.96824012972486628 0.9695192586427237 0.95529459391257021 0.98190455531548093 0.9761241700432729
decision_type=2 2 2 2 2 2 2 2 2 2 2
left_child=1 2 3 5 -4 6 -1 -7 -8 -2 -5
right_child=9 -3 4 10 -6 7 8 -9 -10 -11 -12
leaf_value=-7.373681680521086e-06 -0.00074233148296708976 0.00032801999246090733 -0.0003421091723803524 0.0007527736427740538 -1.9011926678588016e-05 -0.00061956777158094216 0.0014321282710767834 -3.3230635703972612e-06 0.00046197599999101533 -0.00020585083733287322 0.00023947097066398092
leaf_weight=1329 178 930 979 187 6996 235 83 3944 443 2014 1728
leaf_count=1329 178 930 979 187 6996 235 83 3944 443 2014 1728
internal_value=0 3.24385e-05 1.51758e-05 8.92681e-05 -5.86749e-05 2.56907e-05 0.000169123 -3.79767e-05 0.000615061 -0.000249415 0.000289595
internal_weight=0 16854 15924 7949 7975 6034 1855 4179 526 2192 1915
internal_count=19046 16854 15924 7949 7975 6034 1855 4179 526 2192 1915
is_linear=0
shrinkage=0.1


Tree=17
num_leaves=12
num_cat=0
split_feature=40 46 46 40 46 46 40 120 87 46 7
split_gain=0.0128155 0.00954355 0.00886966 0.00688253 0.00731041 0.00639602 0.0056431 0.00478885 0.0106945 0.00449056 0.00345662
threshold=0.99493383489496223 0.99316433173619767 0.99416870453562756 0.98348019652277963 0.98247921745294542 0.98109249879488492 0.96676871669046915 0.9327805477616371 0.93480599029351219 0.98071810072185761 0.94776865760338314
decision_type=2 2 2 2 2 2 2 2 2 2 2
left_child=1 3 9 4 7 -5 -3 8 -1 -2 -9
right_child=2 6 -4 5 -6 -7 -8 10 -10 -11 -12
leaf_value=-1.9891190555022655e-05 -0.00065989255104675773 0.0015613126313133588 -1.1606970092743e-05 -0.00049316006759856496 0.00030232611975872139 -4.4990110166543295e-05 0.0002047245911577933 -0.00035453681784207539 0.0018681816391957304 -0.00020928510684165079 2.8433722125340106e-05
leaf_weight=90 242 31 3641 345 1232 4136 2825 252 45 2568 3639
leaf_count=90 242 31 3641 345 1232 4136 2825 252 45 2568 3639
internal_value=0 5.87058e-05 -0.000114618 1.1567e-05 8.91728e-05 -7.94955e-05 0.000219449 2.39456e-05 0.000609466 -0.000248092 3.6307e-06
internal_weight=0 12595 6451 9739 5258 4481 2856 4026 135 2810 3891
internal_count=19046 12595 6451 9739 5258 4481 2856 4026 135 2810 3891
is_linear=0
shrinkage=0.1


Tree=18
num_leaves=12
num_cat=0
split_feature=40 46 46 40 46 120 209 7 1 40 46
split_gain=0.01084 0.0114248 0.0104804 0.00550651 0.00541196 0.00510293 0.0108968 0.00673384 0.00788767 0.00478228 0.00451728
threshold=0.98924052221722036 0.98939826604519465 0.98818884656630934 0.95786375777994504 0.96845458661797024 0.95441839278542628 0.96675996331349545 0.96307691655910121 0.96524847223465449 0.93614460961347967 0.99774932535525551
decision_type=2 2 2 2 2 2 2 2 2 2 2
left_child=2 4 5 -4 -2 6 -1 -7 -9 -8 -3
right_child=1 10 3 -5 -6 7 9 8 -10 -11 -12
leaf_value=8.2186245412724148e-05 -0.0012530010218986057 -5.2170117297831635e-05 0.0017470402009785177 0.00025449459212145389 -0.00024800133125515956 -0.00036608830683829954 0.0024468675255775452 0.00046329607456616203 -1.4695495409274595e-05 0.00082800823033169337 0.00012816279794270754
leaf_weight=546 55 6765 25 2195 2079 494 22 373 4637 107 1748
leaf_count=546 55 6765 25 2195 2079 494 22 373 4637 107 1748
internal_value=0 -6.70059e-05 8.49401e-05 0.000271303 -0.000273903 1.79836e-05 0.000277484 -1.38411e-05 2.08915e-05 0.00110409 -1.51418e-05
internal_weight=0 10647 8399 2220 2134 6179 675 5504 5010 129 8513
internal_count=19046 10647 8399 2220 2134 6179 675 5504 5010 129 8513
is_linear=0
shrinkage=0.1


Tree=19
num_leaves=12
num_cat=0
split_feature=40 46 40 46 46 120 209 1 40 46 46
split_gain=0.00986545 0.0057582 0.00567277 0.0114006 0.00902726 0.00398821 0.0067175 0.00485511 0.00391189 0.00369912 0.00336549
threshold=0.99943340609724107 0.99872328878761729 0.97725202062172578 0.97554685260246843 0.97585109558554617 0.96005104160002164 0.96310502412369881 0.93748756822335066 0.95915334578941691 0.96256245408422647 0.98637489774996023
decision_type=2 2 2 2 2 2 2 2 2 2 2
left_child=1 2 3 5 -4 6 -1 -8 -5 -7 -6
right_child=-2 -3 4 8 10 9 7 -9 -10 -11 -12
leaf_value=-1.3491144215232985e-05 -0.00019634161108888256 0.00025510187912473165 -0.0005415018216022693 0.0010871628102708003 -0.00010256308927413987 -0.00043987608020702116 0.0019992721838537945 0.00045047639758648094 0.00033516285088315328 -2.8842910826165713e-05 2.2834164859201467e-05
leaf_weight=663 2256 1033 324 74 2795 270 22 253 1061 1158 9137
leaf_count=663 2256 1033 324 74 2795 270 22 253 1061 1158 9137
internal_value=0 2.63816e-05 1.13871e-05 0.000123651 -2.06817e-05 -1.33421e-06 0.000158859 0.00057438 0.000384192 -0.000106559 -6.5394e-06
internal_weight=0 16790 15757 3501 12256 2366 938 275 1135 1428 11932
internal_count=19046 16790 15757 3501 12256 2366 938 275 1135 1428 11932
is_linear=0
shrinkage=0.1


Tree=20
num_leaves=12
num_cat=0
split_feature=40 46 46 200 6 40 46 46 40 40 46
split_gain=0.00865433 0.00752262 0.00693237 0.00408236 0.0062468 0.0032289 0.00307169 0.0030192 0.0120858 0.00682628 0.00256246
threshold=0.99290086890336948 0.99350761860478498 0.99297484177902928 0.92677622225910128 0.9267410263944077 0.97184496160763578 0.97850630476980893 0.96710877767195969 0.96609605996725356 0.96796491120160943 0.97681938334937735
decision_type=2 2 2 2 2 2 2 2 2 2 2
left_child=1 3 6 4 -1 -3 -2 9 -9 -5 -10
right_child=2 5 -4 7 -6 -7 -8 8 10 -11 -12
leaf_value=-3.841028051283502e-05 -0.00060352596521032241 0.00098764811021586274 -8.7346198563811075e-06 -4.0079243583235403e-05 0.001973765658180195 0.0002225477904873362 -0.00017491400677697042 0.00059360721042734678 -0.00012207392489528142 -0.00073828862182784218 3.8355775925915013e-05
leaf_weight=36 178 57 5208 1231 27 1708 2757 376 1189 158 6121
leaf_count=36 178 57 5208 1231 27 1708 2757 376 1189 158 6121
internal_value=0 5.82551e-05 -7.80002e-05 2.17496e-05 0.000823951 0.000247256 -0.000200908 1.61806e-05 4.07008e-05 -0.000119501 1.22613e-05
internal_weight=0 10903 8143 9138 63 1765 2935 9075 7686 1389 7310
internal_count=19046 10903 8143 9138 63 1765 2935 9075 7686 1389 7310
is_linear=0
shrinkage=0.1


Tree=21
num_leaves=12
num_cat=0
split_feature=40 46 46 46 46 1 7 46 40 46 40
split_gain=0.00773216 0.0096335 0.00836608 0.0041912 0.00397036 0.00338703 0.00895846 0.00434158 0.00518138 0.00370177 0.00570823
threshold=0.98649284622072941 0.98544906534735832 0.98637489774996023 0.95895722966746189 0.99618639880895665 0.9436753371097103 0.94530207051821702 0.95316806159622858 0.95529459391257021 0.96912784701811849 0.97103112689579685
decision_type=2 2 2 2 2 2 2 2 2 2 2
left_child=2 3 5 -2 -3 6 -1 -7 -9 -10 -11
right_child=1 4 -4 -5 -6 7 -8 8 9 10 -12
leaf_value=-4.2656185843221996e-05 -0.001752316819038242 -5.8729005684306527e-05 0.00028297529403235709 -0.00029247144079975275 7.088491018375075e-05 -0.00037587998527980259 0.0010114646891067637 0.00045772957134616323 -0.00019431988906218063 0.00033691986143526311 -1.2293992002909219e-05
leaf_weight=234 20 7585 1629 1179 3433 287 123 261 806 557 2932
leaf_count=234 20 7585 1629 1179 3433 287 123 261 806 557 2932
internal_value=0 -4.7637e-05 8.52221e-05 -0.000316822 -1.83438e-05 2.32721e-05 0.000320528 1.35999e-06 2.51238e-05 -1.16495e-06 4.34561e-05
internal_weight=0 12217 6829 1199 11018 5200 357 4843 4556 4295 3489
internal_count=19046 12217 6829 1199 11018 5200 357 4843 4556 4295 3489
is_linear=0
shrinkage=0.1


Tree=22
num_leaves=12
num_cat=0
split_feature=40 46 40 46 46 46 120 87 40 40 46
split_gain=0.00700199 0.00423755 0.00366982 0.00845448 0.00723837 0.00291524 0.00271077 0.00351375 0.00265043 0.00230563 0.00229434
threshold=0.99786659263784239 0.99774932535525551 0.97424122397369661 0.97330471373966787 0.97455129915903205 0.99562007664400676 0.92494985323317536 0.93480599029351219 0.9822031250119525 0.94865999816940216 0.963647446080654
decision_type=2 2 2 2 2 2 2 2 2 2 2
left_child=1 2 3 6 10 -2 7 -1 -3 -5 -4
right_child=5 8 4 9 -6 -7 -8 -9 -10 -11 -12
leaf_value=0.00014541772825396037 -0.00019417263301717776 0.00069854059256613255 -0.0011733505731591812 0.0012870023333191596 2.9092715605141587e-06 -1.5061530620148596e-05 -2.0596719183642365e-05 0.0016963022960616008 0.00016070361419172596 0.00034802353200555754 -0.00036216072228322828
leaf_weight=48 2253 99 39 27 10738 1523 1908 21 1230 831 329
leaf_count=48 2253 99 39 27 10738 1523 1908 21 1230 831 329
internal_value=0 3.01513e-05 1.38863e-05 0.000115436 -1.2036e-05 -0.000121931 1.67115e-06 0.000617426 0.000200768 0.000377572 -0.000448129
internal_weight=0 15270 13941 2835 11106 3776 1977 69 1329 858 368
internal_count=19046 15270 13941 2835 11106 3776 1977 69 1329 858 368
is_linear=0
shrinkage=0.1


Tree=23
num_leaves=12
num_cat=0
split_feature=40 46 46 40 46 126 40 46 40 46 40
split_gain=0.00571143 0.00570287 0.00520535 0.00343787 0.00404507 0.00333834 0.00324533 0.00277111 0.002748 0.00601124 0.00351407
threshold=0.99154372564459603 0.9896960278115664 0.99211372687894783 0.98080278694065026 0.97798371599538803 0.95686545187788108 0.96113997460381195 0.97850630476980893 0.96475044454556491 0.95895722966746189 0.95279212186113416
decision_type=2 2 2 2 2 2 2 2 2 2 2
left_child=1 3 5 4 8 -2 -3 -5 9 -1 -11
right_child=2 6 -4 7 -6 -7 -8 -9 -10 10 -12
leaf_value=-6.646077151759563e-05 -0.0014227885819439378 0.0013328983196212599 -5.0196439880390508e-06 -0.00037258888376175001 0.0002044439138709174 -0.00015743841913810517 0.00016493557526343263 -4.6095930626957974e-05 -9.7091925656628438e-05 0.0009031237799606561 0.00023971473468256102
leaf_weight=853 21 24 6213 289 1366 2922 2723 2587 1519 98 431
leaf_count=853 21 24 6213 289 1366 2922 2723 2587 1519 98 431
internal_value=0 5.26897e-05 -5.69136e-05 5.5987e-06 6.25545e-05 -0.000166467 0.00017514 -7.89042e-05 -4.25732e-06 9.77801e-05 0.000362615
internal_weight=0 9890 9156 7143 4267 2943 2747 2876 2901 1382 529
internal_count=19046 9890 9156 7143 4267 2943 2747 2876 2901 1382 529
is_linear=0
shrinkage=0.1


Tree=24
num_leaves=12
num_cat=0
split_feature=40 46 40 46 46 202 40 46 40 46 46
split_gain=0.00506931 0.00333041 0.00277923 0.00768956 0.00430134 0.00309834 0.00297343 0.00467971 0.00258363 0.00338206 0.00281383
threshold=0.99794181806925908 0.99928022942227257 0.94661486747850743 0.94721941103910101 0.95316806159622858 0.93794741184612673 0.9601368146116992 0.96460039180576518 0.97252087373076979 0.97617869834710014 0.9720224883995271
decision_type=2 2 2 2 2 2 2 2 2 2 2
left_child=1 2 3 -1 -4 -5 -6 -8 10 -10 -9
right_child=-2 -3 4 5 6 -7 7 8 9 -11 -12
leaf_value=-4.0365398784230753e-05 -0.00010489183753584485 0.00025317626789953245 -0.00044354166037954617 0.0019681660144124182 0.00025916063392334842 0.00064153790724735794 -0.00040470255514585865 -1.9544432229849918e-05 -0.00021259995978587968 1.3969951167232503e-05 0.00030041547379703313
leaf_weight=312 3710 616 208 20 480 147 272 490 699 11466 626
leaf_count=312 3710 616 208 20 480 147 272 490 699 11466 626
internal_value=0 2.53749e-05 1.58419e-05 0.000252767 7.87281e-06 0.000800416 1.45638e-05 5.901e-06 1.43103e-05 9.51261e-07 0.000159931
internal_weight=0 15336 14720 479 14241 167 14033 13553 13281 12165 1116
internal_count=19046 15336 14720 479 14241 167 14033 13553 13281 12165 1116
is_linear=0
shrinkage=0.1


Tree=25
num_leaves=12
num_cat=0
split_feature=80 46 46 1 46 46 120 7 7 1 46
split_gain=0.00441786 0.00545607 0.00427522 0.00283749 0.00252093 0.00251178 0.00230018 0.00456215 0.0024535 0.00332846 0.00248118
threshold=0.98877758856674325 0.98401830483598107 0.98637489774996023 0.97739875374067475 0.95895722966746189 0.99748011948627469 0.93756421077770502 0.937631433480281 0.94776865760338314 0.95269939663466408 0.96043706806028861
decision_type=2 2 2 2 2 2 2 2 2 2 2
left_child=2 4 6 -4 -2 -3 7 -1 -8 -10 -11
right_child=1 5 3 -5 -6 -7 8 -9 9 10 -12
leaf_value=-6.9736714543731812e-05 -0.0014099927246570589 -4.7407556518151375e-05 0.00044382555353003194 0.00012148246125894701 -0.00027197173249578053 7.7212284594172439e-05 -0.00035001033942206613 0.00088791996581993621 0.00032177766017108905 -0.0002825260978401146 4.16738703131511e-06
leaf_weight=118 20 8098 308 2409 728 2021 202 86 312 324 4420
leaf_count=118 20 8098 308 2409 728 2021 202 86 312 324 4420
internal_value=0 -4.1783e-05 5.55148e-05 0.000158023 -0.0003024 -2.25181e-05 4.52327e-06 0.000333981 -8.25905e-06 5.39478e-06 -1.54129e-05
internal_weight=0 10867 8179 2717 748 10119 5462 204 5258 5056 4744
internal_count=19046 10867 8179 2717 748 10119 5462 204 5258 5056 4744
is_linear=0
shrinkage=0.1


Tree=26
num_leaves=12
num_cat=0
split_feature=40 46 46 40 46 40 46 46 46 40 46
split_gain=0.00399307 0.00552183 0.00483855 0.00240831 0.00217846 0.00201108 0.00399866 0.00278201 0.00196392 0.00192585 0.00367677
threshold=0.98724407884779264 0.98678356878793771 0.98527165151910678 0.95421904143738356 0.95895722966746189 0.97354959602470548 0.97095948779708963 0.97290631313625864 0.99605080397444345 0.95012009487085336 0.95138888928156928
decision_type=2 2 2 2 2 2 2 2 2 2 2
left_child=2 4 5 -4 -2 6 9 -7 -3 10 -1
right_child=1 8 3 -5 -6 7 -8 -9 -10 -11 -12
leaf_value=-1.3795248117397605e-05 -0.0012539353396277876 -4.195152118879576e-05 0.0012488983316524399 0.00017279900337732518 -0.00020308476534685764 -0.00038650790257424187 0.00025234892615334597 -2.4618080540134766e-05 4.9525576752456921e-05 -9.2940997069753667e-05 0.00057087159939646565
leaf_weight=434 20 6739 21 2155 1447 234 803 2304 3601 1145 143
leaf_count=434 20 6739 21 2155 1447 234 803 2304 3601 1145 143
internal_value=0 -3.58526e-05 5.84766e-05 0.000183184 -0.000217411 4.87919e-06 6.80658e-05 -5.79838e-05 -1.00938e-05 -1.78687e-05 0.000131105
internal_weight=0 11807 7239 2176 1467 5063 2525 2538 10340 1722 577
internal_count=19046 11807 7239 2176 1467 5063 2525 2538 10340 1722 577
is_linear=0
shrinkage=0.1


Tree=27
num_leaves=12
num_cat=0
split_feature=40 46 40 46 46 120 255 126 40 46 40
split_gain=0.00358492 0.00243257 0.00221114 0.00400357 0.00398725 0.00182646 0.00245684 0.00188642 0.00153985 0.00207241 0.0040621
threshold=0.9997192932493032 0.99945094405800816 0.98150314609520806 0.98140383964806366 0.98085889431854179 0.92494985323317536 0.96199834420982733 0.92857138584854126 0.93614460961347967 0.95482793572094715 0.9564579235557582
decision_type=2 2 2 2 2 2 2 2 2 2 2
left_child=1 2 4 -4 5 6 -1 -7 -9 -10 -11
right_child=-2 -3 3 -5 -6 7 -8 8 9 10 -12
leaf_value=0.00013635285039508374 -0.00012655239624452573 0.00020399758443747225 -0.00024739237521271531 -1.458961651500948e-06 0.00021126226828896514 -0.00083462838988958136 0.001451576267136261 0.00037089577360618296 -0.0002020184377847061 0.00038753251864619034 -1.4942865710554989e-05
leaf_weight=49 2003 654 705 10835 1333 27 20 111 471 278 2560
leaf_count=49 2003 654 705 10835 1333 27 20 111 471 278 2560
internal_value=0 1.48732e-05 7.32626e-06 -1.64835e-05 6.39904e-05 8.15611e-06 0.000517577 -2.04117e-06 4.53189e-06 -7.75775e-06 2.44821e-05
internal_weight=0 17043 16389 11540 4849 3516 69 3447 3420 3309 2838
internal_count=19046 17043 16389 11540 4849 3516 69 3447 3420 3309 2838
is_linear=0
shrinkage=0.1


Tree=28
num_leaves=12
num_cat=0
split_feature=40 46 40 46 46 46 40 40 46 46 40
split_gain=0.00310779 0.0031751 0.00237587 0.00230502 0.00223778 0.00173609 0.00168028 0.0016093 0.00424686 0.00260161 0.00148652
threshold=0.99588082886112661 0.99316433173619767 0.984033664392437 0.98166346594655163 0.98024147425470576 0.99541323113755642 0.96214765889482623 0.96796491120160943 0.96710877767195969 0.97034502843007853 0.9601368146116992
decision_type=2 2 2 2 2 2 2 2 2 2 2
left_child=1 2 3 7 -4 -2 -3 8 -1 -9 -10
right_child=5 6 4 -5 -6 -7 -8 9 10 -11 -12
leaf_value=-1.6094856557563832e-05 -0.00011299348559054537 0.0010015585260199648 -0.00033773333671116703 0.0001478190322545302 -3.7836262401406127e-05 -1.5461547926397295e-06 0.0001042727683240757 -0.00031228987440105145 0.00064722110537866902 -8.5354207753604609e-06 0.0002318150795022762
leaf_weight=1289 3073 21 264 1506 4325 2564 3370 332 119 1871 312
leaf_count=1289 3073 21 264 1506 4325 2564 3370 332 119 1871 312
internal_value=0 2.61909e-05 -2.12005e-06 4.26533e-05 -5.5089e-05 -6.23015e-05 0.00010983 2.28125e-06 7.47671e-05 -5.43123e-05 0.00034651
internal_weight=0 13409 10018 5429 4589 5637 3391 3923 1720 2203 431
internal_count=19046 13409 10018 5429 4589 5637 3391 3923 1720 2203 431
is_linear=0
shrinkage=0.1


Tree=29
num_leaves=12
num_cat=0
split_feature=40 46 40 46 46 40 46 40 40 46 46
split_gain=0.00260949 0.00311624 0.00246341 0.00321526 0.00229167 0.0018419 0.0032522 0.00193275 0.00175154 0.00168851 0.00167055
threshold=0.99421978194037186 0.99088861615849877 0.97827626651433852 0.97455129915903205 0.97330471373966787 0.96475044454556491 0.95895722966746189 0.95166919482947809 0.95786375777994504 0.96460039180576518 0.99373853768697329
decision_type=2 2 2 2 2 2 2 2 2 2 2
left_child=1 2 3 5 -4 6 7 -1 -8 -7 -2
right_child=10 -3 4 -5 -6 9 8 -9 -10 -11 -12
leaf_value=4.6848565885377046e-05 -0.00010687859491462904 0.0001046118061335729 -0.00051554222447088081 0.00017953658391774781 -4.3023700932783621e-05 -0.00049374745465166777 0.00051551618516180943 -0.00027370937513556521 0.00012123844322671884 -7.4939104384848742e-05 -7.8921929931966428e-06
leaf_weight=573 2877 3707 105 1335 4566 109 178 280 307 824 4185
leaf_count=573 2877 3707 105 1335 4566 109 178 280 307 824 4185
internal_value=0 2.84144e-05 -5.7119e-06 5.63785e-05 -5.36455e-05 -1.60196e-05 5.91836e-05 -5.83756e-05 0.000265942 -0.000123867 -4.82184e-05
internal_weight=0 11984 8277 3606 4671 2271 1338 853 485 933 7062
internal_count=19046 11984 8277 3606 4671 2271 1338 853 485 933 7062
is_linear=0
shrinkage=0.1


Tree=30
num_leaves=12
num_cat=0
split_feature=40 7 7 45 0 0 127 7 1 1 7
split_gain=0.00228984 0.00287499 0.00262037 0.00165904 0.00162234 0.00157494 0.00310681 0.001423 0.00295249 0.00126724 0.00104807
threshold=0.98750334610576651 0.98707821696435094 0.98673282151821373 0.96080096535030957 0.95290496612400022 0.92081277596315025 0.92916823300371687 0.94530207051821702 0.9436753371097103 0.9436753371097103 0.92784440614340014
decision_type=2 2 2 2 2 2 2 2 2 2 2
left_child=1 5 3 -2 -3 6 -1 9 -9 10 -7
right_child=2 4 -4 -5 -6 7 -8 8 -10 -11 -12
leaf_value=-5.3693040314190113e-05 -0.00099363331860133808 0.0010233639905761396 -9.3525384167281598e-06 -0.00013774786723171623 0.00013954620325674872 -0.00063008493193592594 0.0013436930164551506 0.00052420347311205907 5.1524704414117449e-07 -0.00066027905760248284 1.4371145694820706e-06
leaf_weight=41 23 21 10169 1479 1888 32 26 110 5055 55 147
leaf_count=41 23 21 10169 1479 1888 32 26 110 5055 55 147
internal_value=0 4.36188e-05 -2.75631e-05 -0.000150854 0.000149269 6.72059e-06 0.000488576 7.40905e-07 1.16683e-05 -0.000240465 -0.000111461
internal_weight=0 7375 11671 1502 1909 5466 67 5399 5165 234 179
internal_count=19046 7375 11671 1502 1909 5466 67 5399 5165 234 179
is_linear=0
shrinkage=0.1


Tree=31
num_leaves=12
num_cat=0
split_feature=40 201 86 208 7 40 7 126 1 7 7
split_gain=0.00204976 0.00147509 0.00332356 0.00168553 0.00134064 0.00131544 0.00293443 0.00215893 0.00138094 0.00168472 0.00147236
threshold=0.99989928192229161 0.92886425642856441 0.93391474675526231 0.93389433223081342 0.99807424750713458 0.9761241700432729 0.97136267213035843 0.97902305090883757 0.95808782006656046 0.95822958298900296 0.95715241752532731
decision_type=2 2 2 2 2 2 2 2 2 2 2
left_child=1 2 -1 -3 5 6 8 -7 9 -5 -10
right_child=-2 3 -4 4 -6 7 -8 -9 10 -11 -12
leaf_value=-1.2617621738469581e-05 -9.7414322719033665e-05 -0.00075260224229764549 0.0014237302530091256 -1.2702965433893502e-05 9.7668677873774366e-05 -0.00018125209263503803 0.00016169266646294617 -2.8935267720693678e-06 -0.00069855412141242557 0.00034322817305543316 -9.1240079327137267e-05
leaf_weight=49 1940 29 24 638 1596 721 1477 11556 42 168 806
leaf_count=49 1940 29 24 638 1596 721 1477 11556 42 168 806
internal_value=0 1.10478e-05 0.000459606 9.12538e-06 1.04245e-05 1.38751e-06 5.9246e-05 -1.33681e-05 -3.22376e-05 6.14862e-05 -0.000121319
internal_weight=0 17106 73 17033 17004 15408 3131 12277 1654 806 848
internal_count=19046 17106 73 17033 17004 15408 3131 12277 1654 806 848
is_linear=0
shrinkage=0.1


Tree=32
num_leaves=12
num_cat=0
split_feature=46 1 46 40 46 40 46 40 46 40 46
split_gain=0.00190941 0.00190143 0.00134352 0.00217228 0.00160093 0.00120637 0.00114228 0.00176933 0.0023151 0.00169196 0.00147222
threshold=0.99903430333209864 0.99623595217642769 0.98988779473432975 0.98508689616471912 0.96642592136099903 0.97424122397369661 0.97738682074455119 0.96796491120160943 0.96710877767195969 0.97550095504823253 0.96460039180576518
decision_type=2 2 2 2 2 2 2 2 2 2 2
left_child=1 2 3 6 -5 -2 7 8 -1 -8 -9
right_child=5 -3 -4 4 -6 -7 9 10 -10 -11 -12
leaf_value=-1.5480418791588381e-05 0.00083723105490207672 -6.2170478223760013e-05 5.0922927393691014e-05 -0.00093778189779682598 -8.1151699262622262e-05 0.00011925501254076966 0.00022749381813320306 -0.00057222844764160427 0.00026773012208893736 2.8510623939459435e-05 -8.3717850006689124e-05
leaf_weight=1288 24 4682 5313 22 2616 940 546 65 372 1966 1212
leaf_count=1288 24 4682 5313 22 2616 940 546 65 372 1966 1212
internal_value=0 -7.31077e-06 1.18574e-05 -1.38079e-05 -8.82957e-05 0.00013713 2.22535e-05 -2.00899e-05 4.7986e-05 7.1761e-05 -0.000108583
internal_weight=0 18082 13400 8087 2638 964 5449 2937 1660 2512 1277
internal_count=19046 18082 13400 8087 2638 964 5449 2937 1660 2512 1277
is_linear=0
shrinkage=0.1


Tree=33
num_leaves=12
num_cat=0
split_feature=46 40 46 46 80 86 46 40 86 40 80
split_gain=0.00163811 0.00178013 0.00183769 0.00160167 0.00142804 0.00206007 0.00166572 0.00126018 0.00104766 0.00102126 0.000932293
threshold=0.99806890312857388 0.98890672058063711 0.98085889431854179 0.98401830483598107 0.9705414236076978 0.96886094656296695 0.96642592136099903 0.98969347333207536 0.95871484240420812 0.97910129944555047 0.94043470229131709
decision_type=2 2 2 2 2 2 2 2 2 2 2
left_child=1 3 8 4 5 -1 -6 -2 -3 -5 -7
right_child=7 2 -4 9 6 10 -8 -9 -10 -11 -12
leaf_value=-7.3744401256955892e-06 0.00029321041199782834 -0.00096516131932730784 -3.0109846776897671e-05 0.00020740207624979891 -0.00048690780916910045 0.00088671641613473177 -4.456068413435938e-05 5.6397965118780794e-05 -0.00022010805153187715 5.5362883314805756e-05 0.00019129925706400349
leaf_weight=1598 265 20 8984 533 88 20 2609 1478 335 2582 534
leaf_count=1598 265 20 8984 533 88 20 2609 1478 335 2582 534
internal_value=0 -9.30804e-06 -3.89278e-05 2.54256e-05 -1.05182e-05 5.02341e-05 -5.8994e-05 9.24022e-05 -0.000262083 8.13779e-05 0.000216405
internal_weight=0 17303 9339 7964 4849 2152 2697 1743 355 3115 554
internal_count=19046 17303 9339 7964 4849 2152 2697 1743 355 3115 554
is_linear=0
shrinkage=0.1


Tree=34
num_leaves=12
num_cat=0
split_feature=209 40 127 46 40 46 40 46 40 46 1
split_gain=0.0014666 0.0037099 0.00182978 0.00158479 0.00193723 0.00166244 0.00194911 0.00155544 0.0022145 0.00141459 0.00168343
threshold=0.93481360499791977 0.93614460961347967 0.94845301208212451 0.94721941103910101 0.95279212186113416 0.96043706806028861 0.96386077748856802 0.97455129915903205 0.97797554663561803 0.98839410113073611 0.99177023791644892
decision_type=2 2 2 2 2 2 2 2 2 2 2
left_child=-1 2 -2 -3 -5 -6 -7 -8 -9 -10 -11
right_child=1 3 -4 4 5 6 7 8 9 10 -12
leaf_value=-0.00044431802943035033 0.00027363644608347691 -0.00028420920635528952 0.0010585779613858566 0.00023031463976100526 -0.00023135662009678081 0.00021726838355576032 -0.00011601701883502491 0.00012661525075785256 -5.6744767333404456e-05 7.3989447039667436e-05 -1.3376078839608445e-05
leaf_weight=74 96 197 43 361 315 405 1170 1338 4220 3084 7743
leaf_count=74 96 197 43 361 315 405 1170 1338 4220 3084 7743
internal_value=0 1.73306e-06 0.00051646 -2.06597e-06 9.16548e-07 -3.61493e-06 3.79429e-07 -4.62428e-06 3.32992e-06 -7.63278e-06 1.15094e-05
internal_weight=0 18972 139 18833 18636 18275 17960 17555 16385 15047 10827
internal_count=19046 18972 139 18833 18636 18275 17960 17555 16385 15047 10827
is_linear=0
shrinkage=0.1


Tree=35
num_leaves=12
num_cat=0
split_feature=46 1 120 86 127 72 40 40 46 46 40
split_gain=0.00130772 0.00153049 0.0012193 0.0025511 0.00179438 0.00105874 0.00103999 0.000883158 0.00197152 0.00101066 0.000939651
threshold=0.99774932535525551 0.99746526978329275 0.9327805477616371 0.93391474675526231 0.93929846032968267 0.98444352110858513 0.97696732588192825 0.94661486747850743 0.95138888928156928 0.95138888928156928 0.95529459391257021
decision_type=2 2 2 2 2 2 2 2 2 2 2
left_child=1 2 3 -1 -4 -5 -2 9 -9 -6 -10
right_child=6 -3 4 5 7 -7 -8 8 10 -11 -12
leaf_value=9.8895428465689196e-06 0.00054596570350796633 -7.3609575342412214e-05 -0.00058437661602790919 0.0014718853775411845 4.6020765103779713e-05 0.00047705492027529074 6.4996269194862784e-05 -0.00035770012493805173 0.00018776596987729623 0.00043969381838849722 6.5148590030659313e-07
leaf_weight=94 46 3020 52 20 199 23 1982 152 274 97 13087
leaf_count=94 46 3020 52 20 199 23 1982 152 274 97 13087
internal_value=0 -9.04554e-06 4.88383e-06 0.000301749 1.94966e-06 0.000939767 7.59058e-05 4.15757e-06 4.14671e-07 0.000175028 4.48873e-06
internal_weight=0 17018 13998 137 13861 43 2028 13809 13513 296 13361
internal_count=19046 17018 13998 137 13861 43 2028 13809 13513 296 13361
is_linear=0
shrinkage=0.1


Tree=36
num_leaves=12
num_cat=0
split_feature=40 46 46 40 120 86 7 40 46 40 46
split_gain=0.00115491 0.00225949 0.00198454 0.000949926 0.00089906 0.00183342 0.0010482 0.00122611 0.0017216 0.00116114 0.00141835
threshold=0.98571250893780349 0.98351428040497024 0.98477474378511853 0.95421904143738356 0.9327805477616371 0.93391474675526231 0.94222955096259486 0.94865999816940216 0.95482793572094715 0.96475044454556491 0.96550263563795868
decision_type=2 2 2 2 2 2 2 2 2 2 2
left_child=2 -2 4 -4 5 -1 -6 -8 -9 -10 -11
right_child=1 -3 3 -5 6 -7 7 8 9 10 -12
leaf_value=8.9005861809710041e-06 -0.00017642691717031185 -6.3612947557637367e-06 0.00079448912701558414 0.00011780072141923787 -0.0003060068368333241 0.00080361716488065813 0.00019883547522529023 -0.00028905987056132971 0.00011955294762311978 -0.00031998680434281042 -8.2113142852665076e-06
leaf_weight=94 837 11724 21 1708 114 42 293 214 695 153 3151
leaf_count=94 837 11724 21 1708 114 42 293 214 695 153 3151
internal_value=0 -1.76936e-05 3.42713e-05 0.00012602 9.16998e-07 0.000254328 -6.54271e-06 1.03361e-06 -1.27228e-05 2.06488e-06 -2.26489e-05
internal_weight=0 12561 6485 1729 4756 136 4620 4506 4213 3999 3304
internal_count=19046 12561 6485 1729 4756 136 4620 4506 4213 3999 3304
is_linear=0
shrinkage=0.1


Tree=37
num_leaves=12
num_cat=0
split_feature=46 40 40 46 46 7 1 46 7 40 8
split_gain=0.00111237 0.00131632 0.0012579 0.00167876 0.0011589 0.000856814 0.000825322 0.00144601 0.000951236 0.000836166 0.00116486
threshold=0.99613758496718219 0.99144054742630539 0.984033664392437 0.97850630476980893 0.98003446404186012 0.95822958298900296 0.97120695064462537 0.96787748598431878 0.96307691655910121 0.95012009487085336 0.94279164649727598
decision_type=2 2 2 2 2 2 2 2 2 2 2
left_child=2 -2 4 5 6 -4 7 9 -8 10 -1
right_child=1 -3 3 -5 -6 -7 8 -9 -10 -11 -12
leaf_value=-0.00011513383688693967 0.00017617735592884365 2.1276240105752257e-05 -0.00089166193953133194 -2.6116500337031364e-05 8.4863232609362019e-05 -0.00021594637383403004 -0.00070168517691933602 0.00016847044751086646 -5.381363578766112e-05 -8.5440260924582215e-05 0.00018197426292731786
leaf_weight=209 666 3112 20 9340 2080 304 23 568 1545 821 358
leaf_count=209 666 3112 20 9340 2080 304 23 568 1545 821 358
internal_value=0 4.85828e-05 -1.20216e-05 -3.38792e-05 2.56715e-05 -0.000257657 -9.26568e-06 3.40637e-05 -6.33169e-05 -2.09385e-05 7.24582e-05
internal_weight=0 3778 15268 9664 5604 324 3524 1956 1568 1388 567
internal_count=19046 3778 15268 9664 5604 324 3524 1956 1568 1388 567
is_linear=0
shrinkage=0.1


Tree=38
num_leaves=12
num_cat=0
split_feature=209 40 46 40 46 40 46 40 208 237 46
split_gain=0.00099613 0.00240263 0.0011747 0.00179346 0.00119855 0.00114252 0.00128904 0.00108496 0.00107191 0.0010018 0.000821145
threshold=0.93481360499791977 0.93614460961347967 0.95138888928156928 0.95529459391257021 0.96256245408422647 0.97103112689579685 0.97330471373966787 0.95529459391257021 0.95122572016117279 0.99386238579916764 0.99499740003877146
decision_type=2 2 2 2 2 2 2 2 2 2 2
left_child=9 8 7 -4 -5 -6 -7 -3 -2 -1 -8
right_child=1 2 3 4 5 6 10 -9 -10 -11 -12
leaf_value=-0.00097076547623146392 0.00022666640711720807 -0.00013747562062974155 0.00021937224505410576 -0.00018984190642510972 0.00010163251064288536 -0.00016587572521664556 -1.584529880704917e-05 -0.00083545822126325226 0.00082370075182221962 -0.00014226208612079199 3.2742773193980398e-05
leaf_weight=20 95 309 371 336 1057 487 11205 24 44 54 5044
leaf_count=20 95 309 371 336 1057 487 11205 24 44 54 5044
internal_value=0 1.42829e-06 -1.62899e-06 1.72175e-06 -2.73235e-06 8.00993e-07 -5.56725e-06 -0.000187781 0.000415656 -0.000366182 -7.62633e-07
internal_weight=0 18972 18833 18500 18129 17793 16736 333 139 74 16249
internal_count=19046 18972 18833 18500 18129 17793 16736 333 139 74 16249
is_linear=0
shrinkage=0.1


Tree=39
num_leaves=12
num_cat=0
split_feature=1 201 253 208 7 1 40 7 1 40 126
split_gain=0.000971353 0.000792597 0.0013808 0.00112898 0.000771194 0.000707744 0.000699129 0.00106614 0.000946424 0.000771351 0.000724075
threshold=0.99791044377144578 0.92886425642856441 0.956990013406401 0.93389433223081342 0.99292704883073757 0.99258568778415801 0.98055857580208594 0.97136267213035843 0.96657139585740259 0.96895032405142734 0.98056218637989045
decision_type=2 2 2 2 2 2 2 2 2 2 2
left_child=1 2 -1 -3 6 -6 7 8 -5 -9 -8
right_child=-2 3 -4 4 5 -7 10 9 -10 -11 -12
leaf_value=6.2640687652814312e-05 -4.9612544904183717e-05 -0.00059413200965096735 0.0010234008471126713 1.018580588786981e-05 8.9892579539982585e-05 1.3045843906495708e-05 -0.00013292776807748648 0.00018770231487703101 -0.0001577084284666774 4.1865429138660215e-05 -1.5783850876220574e-05
leaf_weight=52 3269 31 21 1243 1915 3203 581 439 460 2086 5746
leaf_count=52 3269 31 21 1243 1915 3203 581 439 460 2086 5746
internal_value=0 1.02797e-05 0.000339024 8.75157e-06 9.94403e-06 4.17996e-05 -5.50236e-06 2.5981e-05 -3.51644e-05 6.72208e-05 -2.6541e-05
internal_weight=0 15777 73 15704 15673 5118 10555 4228 1703 2525 6327
internal_count=19046 15777 73 15704 15673 5118 10555 4228 1703 2525 6327
is_linear=0
shrinkage=0.1


Tree=40
num_leaves=12
num_cat=0
split_feature=46 1 40 208 46 40 40 127 40 267 1
split_gain=0.000864999 0.00080739 0.000684835 0.00167774 0.00134098 0.00134084 0.00079856 0.000772978 0.00117096 0.00070055 0.000672881
threshold=0.99961300377083318 0.99888667943457865 0.93614460961347967 0.94763462045070535 0.94721941103910101 0.95166919482947809 0.94865999816940216 0.9699389176362917 0.97011525554319744 0.99288482525560895 0.96270334096286903
decision_type=2 2 2 2 2 2 2 2 2 2 2
left_child=1 2 3 9 5 -4 -6 10 -9 -1 -8
right_child=-2 -3 4 -5 6 -7 7 8 -10 -11 -12
leaf_value=9.2879535355905321e-05 0.00011686213248944275 -6.3427576073203626e-05 -0.00016056552434003441 0.00063510190940810319 0.0002120688557744095 -0.00095735141464198628 -5.0287035636758409e-06 0.00013069277493333196 1.2258283440647246e-06 -0.00053027820557915788 -0.00017127694705797245
leaf_weight=128 613 2027 176 59 183 24 511 735 14104 21 465
leaf_count=128 613 2027 176 59 183 24 511 735 14104 21 465
internal_value=0 -3.88632e-06 3.47015e-06 0.000183768 1.15492e-06 -0.00025618 4.37201e-06 1.96869e-06 7.63854e-06 5.05193e-06 -8.42351e-05
internal_weight=0 18433 16406 208 16198 200 15998 15815 14839 149 976
internal_count=19046 18433 16406 208 16198 200 15998 15815 14839 149 976
is_linear=0
shrinkage=0.1


Tree=41
num_leaves=12
num_cat=0
split_feature=46 1 40 201 46 46 40 46 40 46 46
split_gain=0.00072542 0.000867381 0.000755772 0.00061616 0.00116985 0.000969396 0.000520024 0.00134191 0.000616808 0.00142435 0.000958342
threshold=0.99693030868443622 0.99709964724486866 0.99029438868515274 0.92886425642856441 0.92657691281411447 0.92657691281411447 0.94253672360949825 0.94943199517404575 0.9601368146116992 0.96171573255490028 0.96043706806028861
decision_type=2 2 2 2 2 2 2 2 2 2 2
left_child=1 3 -2 4 -1 -5 -7 -8 10 -10 -9
right_child=2 -3 -4 5 -6 6 7 8 9 -11 -12
leaf_value=-5.1547685108657576e-05 0.00016820064895988114 -5.7432702009212509e-05 2.4712236603028893e-05 -0.00055750100301895972 0.00075833389024821025 0.00014789981520620609 -0.00027945561182979658 -2.1087423613629257e-06 -0.00032840367706064697 1.9007880607062958e-06 0.00024649846068436186
leaf_weight=42 431 2937 2475 31 31 241 170 382 132 11913 261
leaf_count=42 431 2937 2475 31 31 241 170 382 132 11913 261
internal_value=0 -8.28112e-06 4.59936e-05 2.65262e-06 0.000292375 1.04183e-06 2.36367e-06 -3.64138e-07 3.37526e-06 -1.71899e-06 9.88034e-05
internal_weight=0 16140 2906 13203 73 13130 13099 12858 12688 12045 643
internal_count=19046 16140 2906 13203 73 13130 13099 12858 12688 12045 643
is_linear=0
shrinkage=0.1


Tree=42
num_leaves=12
num_cat=0
split_feature=80 126 86 41 7 40 288 120 302 7 40
split_gain=0.000652198 0.00129109 0.00111944 0.000727105 0.000711422 0.000674601 0.000574351 0.000445972 0.000568792 0.000552014 0.00086616
threshold=0.97935456898361406 0.97068719017337612 0.97510471866683324 0.94777852404464258 0.98743854797730357 0.99017097787566222 0.98236250194524433 0.92494985323317536 0.97291227386827517 0.94222955096259486 0.94487236470616198
decision_type=2 2 2 2 2 2 2 2 2 2 2
left_child=2 6 7 -4 -3 -6 -2 8 -1 -9 -11
right_child=1 4 3 -5 5 -7 -8 9 -10 10 -12
leaf_value=5.1470107041012027e-05 -0.00081670123778167193 -4.756822964628135e-05 0.00065446148459475653 8.8468990361302604e-05 4.9819855113562525e-05 -8.489100398786247e-06 -0.00023413026532084175 -0.00019505871463731391 0.00067746781784253909 0.00020824602553855384 -2.0094277073901106e-05
leaf_weight=47 20 3363 23 1725 2573 8670 110 159 21 180 2155
leaf_count=47 20 3363 23 1725 2573 8670 110 159 21 180 2155
internal_value=0 -1.00078e-05 3.42168e-05 9.59163e-05 -7.21525e-06 4.85511e-06 -0.000323757 -7.87951e-06 0.000244793 -1.47687e-05 -2.49203e-06
internal_weight=0 14736 4310 1748 14606 11243 130 2562 68 2494 2335
internal_count=19046 14736 4310 1748 14606 11243 130 2562 68 2494 2335
is_linear=0
shrinkage=0.1


Tree=43
num_leaves=12
num_cat=0
split_feature=46 1 80 46 40 46 46 40 46 40 40
split_gain=0.00061528 0.000617847 0.000544392 0.000497229 0.000882697 0.000501477 0.0004999 0.000543762 0.000600869 0.000675652 0.000567892
threshold=0.99853622253205387 0.99808339962521286 0.96959389930263096 0.9896960278115664 0.98525600479232478 0.97410455468894896 0.98003446404186012 0.97388557032759537 0.96787748598431878 0.96386077748856802 0.96113997460381195
decision_type=2 2 2 2 2 2 2 2 2 2 2
left_child=1 3 -2 4 6 -6 7 8 10 -10 -1
right_child=2 -3 -4 -5 5 -7 -8 -9 9 -11 -12
leaf_value=1.3972322477891728e-05 0.00057104393795487428 -4.8873225549740903e-05 5.7781843818554846e-05 2.320357120317803e-05 -0.00032317447139316107 -5.2128825717990679e-05 5.1546856660806444e-05 -6.781791000308587e-05 0.00025209520504303933 3.6461433737012407e-05 -0.00012507764787053648
leaf_weight=1042 21 2707 1295 6737 70 2746 1896 1172 179 772 409
leaf_count=1042 21 2707 1295 6737 70 2746 1896 1172 179 772 409
internal_value=0 -4.89675e-06 6.59722e-05 3.02739e-06 -1.3377e-05 -5.88665e-05 1.00413e-05 -1.19773e-05 1.52688e-05 7.70487e-05 -2.52223e-05
internal_weight=0 17730 1316 15023 8286 2816 5470 3574 2402 951 1451
internal_count=19046 17730 1316 15023 8286 2816 5470 3574 2402 951 1451
is_linear=0
shrinkage=0.1


Tree=44
num_leaves=12
num_cat=0
split_feature=46 0 42 46 1 1 46 373 121 7 1
split_gain=0.000584677 0.00133416 0.000696841 0.00052655 0.000723952 0.000601561 0.000656794 0.000531492 0.000637903 0.000565693 0.000868208
threshold=0.92657691281411447 0.92081277596315025 0.92204915439757307 0.99514718786522038 0.99284486521796755 0.98813236847098751 0.98401830483598107 0.97682307450588091 0.93870726064021714 0.95004694569359216 0.96524847223465449
decision_type=2 2 2 2 2 2 2 2 2 2 2
left_child=2 -2 -1 5 -5 6 7 -3 -9 -10 -11
right_child=1 3 -4 4 -6 -7 -8 8 9 10 -12
leaf_value=-8.7378752518902134e-05 0.00069086391179423246 -0.00014374150965657838 -0.00076804646443980312 9.4636794751796349e-05 6.0972650465283509e-06 -3.0657506060459456e-05 5.3777244526833098e-05 0.00028293820690584195 -0.0001644132726650817 9.1559511087389134e-05 -2.2446602284515424e-05
leaf_weight=53 28 283 21 1230 3706 6966 2362 77 218 840 3262
leaf_count=53 28 283 21 1230 3706 6966 2362 77 218 840 3262
internal_value=0 1.09425e-06 -0.000280541 7.47392e-08 2.81604e-05 -9.82181e-06 1.0789e-05 -1.09072e-05 -2.35767e-06 -7.44281e-06 8.99359e-07
internal_weight=0 18972 74 18944 4936 14008 7042 4680 4397 4320 4102
internal_count=19046 18972 74 18944 4936 14008 7042 4680 4397 4320 4102
is_linear=0
shrinkage=0.1


Tree=45
num_leaves=12
num_cat=0
split_feature=52 40 181 77 46 40 40 126 40 46 40
split_gain=0.000501838 0.000918883 0.000791807 0.000701665 0.000508302 0.00140983 0.000990477 0.000586849 0.000807077 0.000745626 0.00049318
threshold=0.93270739672449487 0.93033791858728743 0.092639944182112396 0.98507290184304663 0.95609600094224423 0.95915334578941691 0.95786375777994504 0.97185144053885542 0.97773085765970191 0.98462229301040949 0.98865940383552819
decision_type=2 2 2 2 2 2 2 2 2 2 2
left_child=3 2 -2 -1 6 -6 -3 -7 -9 -10 -11
right_child=1 4 -4 -5 5 7 -8 8 9 10 -12
leaf_value=-0.00076588566143982468 0.00084643553564092147 -5.0218945437756931e-05 0.00014813541799207265 -7.2509760832838727e-05 0.00019134777588400838 -8.5009656979404132e-05 -0.00049555870240014467 6.397031729256024e-05 -5.647913161775604e-05 4.2983161700896201e-05 -5.6693572063924332e-06
leaf_weight=20 22 543 62 54 387 805 55 1891 2398 2619 10190
leaf_count=20 22 543 62 54 387 805 55 1891 2398 2619 10190
internal_value=0 1.01377e-06 0.000331024 -0.000259909 -4.53872e-07 2.5124e-06 -9.11783e-05 -1.56955e-06 2.35893e-06 -5.30248e-06 4.27841e-06
internal_weight=0 18972 84 74 18888 18290 598 17903 17098 15207 12809
internal_count=19046 18972 84 74 18888 18290 598 17903 17098 15207 12809
is_linear=0
shrinkage=0.1


Tree=46
num_leaves=12
num_cat=0
split_feature=46 46 80 395 393 1 46 40 46 46 47
split_gain=0.000464262 0.000434956 0.00107646 0.000546196 0.000393917 0.000373304 0.000651465 0.000545621 0.000532403 0.000458394 0.000444574
threshold=0.99989877727938981 0.92657691281411447 0.91762377866265099 0.99391753620615375 0.99357869329235449 0.99503613290474624 0.9903538975753069 0.98273918736249388 0.97738682074455119 0.97850630476980893 0.98589577282822838
decision_type=2 2 2 2 2 2 2 2 2 2 2
left_child=1 3 -3 -1 -5 6 7 8 10 -9 -4
right_child=-2 2 5 4 -6 -7 -8 9 -10 -11 -12
leaf_value=-0.00069105226750252767 9.0966007841074194e-05 0.0006292483124761256 -1.1801542799999488e-05 0.00012785189874193749 -0.00043144830429810106 -2.2966990617165107e-05 3.9160813872633456e-05 -0.00017526154172203123 5.2673246519131154e-05 -2.9902477109695447e-05 -0.00045328468499381263
leaf_weight=20 545 27 2754 34 20 6057 4230 233 1954 3149 23
leaf_count=20 545 27 2754 34 20 6057 4230 233 1954 3149 23
internal_value=0 -2.67966e-06 -1.70801e-06 -0.000244636 -7.92963e-05 -2.63387e-06 7.34408e-06 -9.24471e-06 1.26816e-05 -3.99169e-05 -1.5458e-05
internal_weight=0 18501 18427 74 54 18400 12343 8113 4731 3382 2777
internal_count=19046 18501 18427 74 54 18400 12343 8113 4731 3382 2777
is_linear=0
shrinkage=0.1


Tree=47
num_leaves=12
num_cat=0
split_feature=46 1 1 379 1 46 120 120 302 7 80
split_gain=0.000414466 0.000570056 0.00053818 0.000462352 0.000512162 0.00062273 0.00046378 0.000454573 0.000446023 0.000411883 0.000494131
threshold=0.9935902950909431 0.98685875192803418 0.99359450640563896 0.98437705057773806 0.93748756822335066 0.9371560388456156 0.92494985323317536 0.96113984835211175 0.97079958457081306 0.95004694569359216 0.96547944881201786
decision_type=2 2 2 2 2 2 2 2 2 2 2
left_child=1 3 7 6 5 -5 8 -2 -1 -6 -11
right_child=2 -3 -4 4 9 -7 -8 -9 -10 10 -12
leaf_value=4.6526337973773488e-06 0.00053775350359501321 -3.2522027340198483e-05 1.2660737025158652e-06 2.2030612115263561e-05 -0.00014191288615904795 0.00055753251907821651 -8.7136479200115326e-05 5.8624214304778011e-05 0.00057377274343231143 8.9677823887697231e-05 7.5762732929362855e-06
leaf_weight=40 20 6108 4533 49 160 39 687 1995 21 875 4519
leaf_count=40 20 6108 4533 49 160 39 687 1995 21 875 4519
internal_value=0 -1.06777e-05 2.03802e-05 1.02027e-05 1.99969e-05 0.000259355 -6.3673e-05 6.33798e-05 0.000200579 1.62044e-05 2.08946e-05
internal_weight=0 12498 6548 6390 5642 88 748 2015 61 5554 5394
internal_count=19046 12498 6548 6390 5642 88 748 2015 61 5554 5394
is_linear=0
shrinkage=0.1


Tree=48
num_leaves=12
num_cat=0
split_feature=40 46 86 46 40 46 40 168 46 326 46
split_gain=0.000385984 0.00167264 0.000853765 0.000766089 0.000523093 0.000725879 0.000564483 0.000468171 0.00046293 0.000415485 0.000500486
threshold=0.94865999816940216 0.94455049574407901 0.94694106770639686 0.95482793572094715 0.96214765889482623 0.96912784701811849 0.97319483716383293 0.48201390932322719 0.97826974280522971 0.97233178641646723 0.963647446080654
decision_type=2 2 2 2 2 2 2 2 2 2 2
left_child=2 -2 -1 -3 9 -6 -7 -4 -8 -5 -11
right_child=1 3 7 4 5 6 8 -9 -10 10 -12
leaf_value=-7.4905814724641262e-06 -0.00089440926953795411 -0.00019320238823426728 0.00033747230758726307 -2.6886106341702567e-05 -0.00011166956875654515 7.8333049756335862e-05 -6.7685950032805693e-05 -4.8113064658537041e-05 1.619100632313636e-06 6.8446098663696071e-05 0.00031179449828774375
leaf_weight=360 21 206 148 179 586 906 1029 40 15210 226 135
leaf_count=360 21 206 148 179 586 906 1029 40 15210 226 135
internal_value=0 -2.45025e-06 8.27094e-05 -1.4365e-06 7.25604e-07 -2.22723e-06 1.51341e-06 0.000255433 -2.77248e-06 9.76823e-05 0.000159449
internal_weight=0 18498 548 18477 18271 17731 17145 188 16239 540 361
internal_count=19046 18498 548 18477 18271 17731 17145 188 16239 540 361
is_linear=0
shrinkage=0.1


Tree=49
num_leaves=12
num_cat=0
split_feature=46 40 127 42 46 80 46 40 46 40 329
split_gain=0.000356798 0.000773689 0.000569697 0.000495268 0.000387444 0.000642823 0.00056546 0.00055869 0.000627295 0.000533783 0.000403514
threshold=0.92657691281411447 0.93033791858728743 0.94845301208212451 0.92204915439757307 0.94115286755740313 0.94486008150111067 0.95609600094224423 0.96295417122573912 0.96550263563795868 0.9564579235557582 0.97361281246256215
decision_type=2 2 2 2 2 2 2 2 2 2 2
left_child=3 2 -2 -1 -3 -6 9 -8 -9 -7 -10
right_child=1 4 -4 -5 5 6 7 8 10 -11 -12
leaf_value=-5.6308586019165997e-05 0.00015417297668908811 -0.00019871841445355854 0.00078054207318928098 -0.00063014541145613688 0.00016358888882236574 -6.2899697952715271e-05 9.9933667168485964e-05 -0.00016693719340493549 -0.0001398018231006571 -0.00036375008786005011 1.6702407032530471e-06
leaf_weight=53 53 98 20 21 239 276 553 228 204 75 17226
leaf_count=53 53 98 20 21 239 276 553 228 204 75 17226
internal_value=0 8.54808e-07 0.000325781 -0.000219154 -4.00265e-07 6.33466e-07 -1.46471e-06 9.58412e-07 -2.14122e-06 -0.000127184 1.44575e-08
internal_weight=0 18972 73 74 18899 18801 18562 18211 17658 351 17430
internal_count=19046 18972 73 74 18899 18801 18562 18211 17658 351 17430
is_linear=0
shrinkage=0.1


Tree=50
num_leaves=12
num_cat=0
split_feature=46 1 372 80 46 86 120 126 256 80 46
split_gain=0.000345707 0.000351925 0.000289292 0.000420097 0.000656655 0.000478631 0.000337171 0.000383007 0.000334482 0.000319239 0.000441871
threshold=0.99928022942227257 0.99888667943457865 0.97960978366316664 0.97207962335918519 0.97374977162838083 0.97071866531408879 0.92494985323317536 0.93843987980093779 0.96043732954825223 0.95067829166346562 0.95138888928156928
decision_type=2 2 2 2 2 2 2 2 2 2 2
left_child=1 2 6 5 -5 9 8 -8 -1 -4 -11
right_child=-2 -3 3 4 -6 -7 7 -9 -10 10 -12
leaf_value=-2.5028329002907415e-05 6.3355831061682585e-05 -4.2600318112814857e-05 8.5804404084478694e-05 -0.0001242134959365862 2.3945015351891758e-06 0.00011498103831939406 -0.00038675483359072949 -6.006028394156517e-05 0.00048149223085519307 -0.00029617307499628858 -1.9293866764093512e-06
leaf_weight=32 824 1986 423 423 12982 687 38 645 22 54 930
leaf_count=32 824 1986 423 423 12982 687 38 645 22 54 930
internal_value=0 -2.86495e-06 1.99551e-06 4.9063e-06 -1.60066e-06 4.65614e-05 -5.9218e-05 -7.82366e-05 0.000181332 1.31539e-05 -1.80769e-05
internal_weight=0 18222 16236 15499 13405 2094 737 683 54 1407 984
internal_count=19046 18222 16236 15499 13405 2094 737 683 54 1407 984
is_linear=0
shrinkage=0.1


Tree=51
num_leaves=12
num_cat=0
split_feature=46 40 1 1 7 46 322 111 80 46 46
split_gain=0.000316621 0.000407883 0.000356082 0.000272059 0.000818959 0.000668269 0.000489844 0.00035824 0.000308448 0.000515421 0.00047661
threshold=0.99680161456973881 0.97011525554319744 0.99808339962521286 0.94108888707767002 0.94222955096259486 0.94115286755740313 0.9697513829315062 0.98754095298532396 0.97719983974344593 0.97714989461051338 0.97290631313625864
decision_type=2 2 2 2 2 2 2 2 2 2 2
left_child=2 -2 3 5 -5 -1 -6 -7 10 -10 -8
right_child=1 -3 -4 4 6 7 8 -9 9 -11 -12
leaf_value=-1.8141386162231198e-05 0.00044014834080977993 2.6265840971283673e-05 -4.3801944334326634e-05 -0.00047816305094683137 -8.8674187845965371e-05 0.00049187294859439137 -7.1924629807598717e-06 0.00012040484008745505 -0.00010879114689111831 2.3708725790676647e-07 7.4670047418797474e-05
leaf_weight=184 24 3027 2120 36 603 50 1463 54 454 9647 1384
leaf_count=184 24 3027 2120 36 603 50 1463 54 454 9647 1384
internal_value=0 2.95216e-05 -5.63115e-06 2.01071e-07 -1.83761e-06 9.63802e-05 -5.72191e-07 0.000298995 3.5308e-06 -4.6633e-06 3.2603e-05
internal_weight=0 3051 15995 13875 13587 288 13551 104 12948 10101 2847
internal_count=19046 3051 15995 13875 13587 288 13551 104 12948 10101 2847
is_linear=0
shrinkage=0.1


Tree=52
num_leaves=12
num_cat=0
split_feature=46 40 1 251 46 80 88 40 46 46 40
split_gain=0.000298061 0.000562986 0.000521081 0.000458182 0.000315133 0.000312852 0.000282267 0.000275485 0.000731355 0.000503176 0.000381279
threshold=0.99073757434242327 0.98543441092393413 0.99415822221375272 0.96181052877660311 0.98232589756640765 0.95497744868702961 0.99152267131365901 0.96676871669046915 0.963647446080654 0.96550263563795868 0.95166919482947809
decision_type=2 2 2 2 2 2 2 2 2 2 2
left_child=1 4 5 -3 6 -2 7 8 10 -9 -1
right_child=2 3 -4 -5 -6 -7 -8 9 -10 -11 -12
leaf_value=3.7841842598027144e-05 0.00043591791036305953 -0.00051766816817689688 -6.8105421027455685e-06 -3.7872621176446766e-05 4.7803514434553505e-05 3.9358341226476374e-05 -0.00019673654184149009 -0.00023822492950365326 0.00013132825804971135 -1.3540195073938627e-05 -8.1389394955182345e-05
leaf_weight=600 20 20 5489 4118 1491 3754 76 104 494 2395 485
leaf_count=600 20 20 5489 4118 1491 3754 76 104 494 2395 485
internal_value=0 -1.21728e-05 1.28561e-05 -4.01916e-05 8.36604e-06 4.14599e-05 -5.78929e-06 -2.23069e-06 3.0467e-05 -2.28908e-05 -1.54551e-05
internal_weight=0 9783 9263 4138 5645 3774 4154 4078 1579 2499 1085
internal_count=19046 9783 9263 4138 5645 3774 4154 4078 1579 2499 1085
is_linear=0
shrinkage=0.1


Tree=53
num_leaves=12
num_cat=0
split_feature=46 40 395 393 373 40 46 85 40 46 46
split_gain=0.000275888 0.000533248 0.000419572 0.000258879 0.00025695 0.000386807 0.000541182 0.000537135 0.000287416 0.000554715 0.000502796
threshold=0.92657691281411447 0.92081277596315025 0.99391753620615375 0.99357869329235449 0.97682307450588091 0.94661486747850743 0.94721941103910101 0.94995657854405036 0.97668805189865637 0.98264643855462463 0.97585109558554617
decision_type=2 2 2 2 2 2 2 2 2 2 2
left_child=2 -2 -1 -4 -3 7 -7 -6 10 -10 -8
right_child=1 4 3 -5 5 6 8 -9 9 -11 -12
leaf_value=-0.00058397409469762346 0.00046229051428963434 -7.9460497678572034e-05 0.00012013140067745768 -0.00033327837218166678 5.0479040207209113e-05 -0.00031900764234311322 -5.8432678671099547e-07 0.00040229473513170018 -5.4019547614180671e-05 2.9439152422797363e-06 8.9876554216951091e-05
leaf_weight=20 25 397 34 20 221 53 1753 54 1956 13567 946
leaf_count=20 25 397 34 20 221 53 1753 54 1956 13567 946
internal_value=0 7.51665e-07 -0.000192711 -4.77981e-05 1.42678e-07 1.84631e-06 7.49304e-08 0.000119563 1.00301e-06 -4.23386e-06 3.11222e-05
internal_weight=0 18972 74 54 18947 18550 18275 275 18222 15523 2699
internal_count=19046 18972 74 54 18947 18550 18275 275 18222 15523 2699
is_linear=0
shrinkage=0.1


Tree=54
num_leaves=12
num_cat=0
split_feature=52 77 1 109 332 40 46 46 167 40 46
split_gain=0.000237155 0.00044989 0.000377749 0.00030254 0.000271099 0.000354731 0.000703639 0.000651203 0.000288487 0.000218386 0.000510772
threshold=0.93270739672449487 0.98507290184304663 0.92165693082645594 0.97967190299809415 0.96858558737690148 0.95529459391257021 0.95482793572094715 0.95748200756896951 0.56635281567131013 0.98238414128619744 0.98751483354622416
decision_type=2 2 2 2 2 2 2 2 2 2 2
left_child=1 -1 3 -2 -4 7 -7 -6 -9 -8 -11
right_child=2 -3 4 -5 5 6 9 8 -10 10 -12
leaf_value=-0.00058382444272865543 0.00055558184394612911 -2.8614570939882673e-05 -0.00010649165533110998 3.1142680414962926e-05 1.5179015404721957e-05 -0.0003246432896673075 2.0086208630033961e-05 0.00030989411011945697 -5.4313398840559578e-05 -4.3866946308701236e-05 3.7329677375942841e-06
leaf_weight=20 22 54 236 22 454 67 4171 133 26 2835 11006
leaf_count=20 22 54 236 22 454 67 4171 133 26 2835 11006
internal_value=0 -0.000178671 6.96905e-07 0.000293362 1.65753e-08 1.36132e-06 -1.17536e-06 7.61746e-05 0.000250338 2.78607e-08 -6.01674e-06
internal_weight=0 74 18972 44 18928 18692 18079 613 159 18012 13841
internal_count=19046 74 18972 44 18928 18692 18079 613 159 18012 13841
is_linear=0
shrinkage=0.1


Tree=55
num_leaves=12
num_cat=0
split_feature=46 1 40 322 160 350 80 46 86 46 1
split_gain=0.000227743 0.000244562 0.000241187 0.000225499 0.000423293 0.000302571 0.000254425 0.000562441 0.000436097 0.000235517 0.000210378
threshold=0.99853622253205387 0.99925306615870058 0.98365266857564271 0.97062859510805755 0.35551003572653533 0.98222386624396141 0.96609746053201229 0.96460039180576518 0.96592567189411871 0.95748200756896951 0.94962131316633791
decision_type=2 2 2 2 2 2 2 2 2 2 2
left_child=1 3 -2 4 5 -1 8 9 10 -8 -5
right_child=2 -3 -4 6 -6 -7 7 -9 -10 -11 -12
leaf_value=0.0003413118801545352 0.00019023576507349547 -4.0359532734238001e-05 2.7927022687705564e-05 9.0699128201378028e-05 -0.00014618773494738102 -1.435601744459142e-05 -0.00051682300607873389 1.7110371433219978e-06 0.00015594341457500106 -0.00014967610944810217 -1.7257751355367918e-05
leaf_weight=25 99 1593 1217 253 295 553 21 13971 285 104 630
leaf_count=25 99 1593 1217 253 295 553 21 13971 285 104 630
internal_value=0 -2.97916e-06 4.01372e-05 7.10926e-07 -4.87187e-05 1.02754e-06 3.53798e-06 -1.78398e-07 4.8389e-05 -0.000211357 1.36744e-05
internal_weight=0 17730 1316 16137 873 578 15264 14096 1168 125 883
internal_count=19046 17730 1316 16137 873 578 15264 14096 1168 125 883
is_linear=0
shrinkage=0.1


Tree=56
num_leaves=12
num_cat=0
split_feature=46 40 42 127 46 80 329 40 40 46 46
split_gain=0.000227428 0.000399303 0.000345899 0.000337772 0.000284035 0.000372465 0.000369363 0.000295613 0.000230349 0.00037572 0.000355531
threshold=0.92657691281411447 0.93033791858728743 0.92204915439757307 0.94845301208212451 0.94115286755740313 0.94486008150111067 0.97271577107494867 0.94253672360949825 0.98711930503773593 0.98477474378511853 0.99196449020610311
decision_type=2 2 2 2 2 2 2 2 2 2 2
left_child=2 3 -1 -2 7 -6 -7 -3 9 -8 -10
right_child=1 4 -4 -5 5 6 8 -9 10 -11 -12
leaf_value=-3.8877398312148937e-05 0.00010197230230056997 -7.9320371471065354e-05 -0.00051843726963679299 0.00058427587588084863 0.00012470711709554119 -9.6350672668688258e-05 -1.0538328241600122e-06 -0.00050259235625465712 -2.9240464456538901e-05 5.034177327001994e-05 6.459597169169627e-06
leaf_weight=53 53 77 21 20 239 397 4143 21 4490 2166 7366
leaf_count=53 53 77 21 20 239 397 4143 21 4490 2166 7366
internal_value=0 6.82463e-07 -0.000174969 0.00023411 -2.19184e-07 6.65908e-07 -9.31217e-07 -0.000170022 1.1542e-06 1.65913e-05 -7.06042e-06
internal_weight=0 18972 74 73 18899 18801 18562 98 18165 6309 11856
internal_count=19046 18972 74 73 18899 18801 18562 98 18165 6309 11856
is_linear=0
shrinkage=0.1


Tree=57
num_leaves=12
num_cat=0
split_feature=46 40 40 1 326 71 46 7 220 80 46
split_gain=0.000210334 0.00106849 0.000742979 0.000277838 0.000276543 0.000260848 0.000247864 0.000241033 0.000208631 0.000205241 0.000368418
threshold=0.95316806159622858 0.95915334578941691 0.95421904143738356 0.94108888707767002 0.97319850683778453 0.97465018257098468 0.98883806003790242 0.937631433480281 0.98130456761412843 0.96609746053201229 0.97330471373966787
decision_type=2 2 2 2 2 2 2 2 2 2 2
left_child=1 3 5 7 6 -2 -4 -1 -9 -6 -11
right_child=2 -3 4 -5 9 -7 -8 8 -10 10 -12
leaf_value=-4.263983422940025e-05 0.00036522892210174321 -0.00075912361166306916 -0.00011519578429687084 -9.421845763353763e-05 5.4651753461823595e-05 0.00011722826628101756 6.1864822793614792e-05 0.0002360187448537172 -7.168202892595825e-05 -6.5604113945021256e-05 2.5520083706438623e-06
leaf_weight=138 52 21 364 323 695 230 101 83 30 834 16175
leaf_count=138 52 21 364 323 695 230 101 83 30 834 16175
internal_value=0 -5.85199e-05 1.88713e-06 -3.28881e-05 -6.1286e-07 0.000162959 -7.67375e-05 4.60351e-05 0.000154328 1.38657e-06 -7.89882e-07
internal_weight=0 595 18451 574 18169 282 465 251 113 17704 17009
internal_count=19046 595 18451 574 18169 282 465 251 113 17704 17009
is_linear=0
shrinkage=0.1


Tree=58
num_leaves=12
num_cat=0
split_feature=46 40 40 46 167 46 40 46 1 325 88
split_gain=0.000184728 0.000761782 0.000736849 0.000354286 0.000350416 0.000297608 0.00048822 0.00023209 0.000329753 0.000227656 0.000219578
threshold=0.96043706806028861 0.96295417122573912 0.96113997460381195 0.95482793572094715 0.81483253437519909 0.97585109558554617 0.97797554663561803 0.98751483354622416 0.99125524238456186 0.97259712248971186 0.97157057279004932
decision_type=2 2 2 2 2 2 2 2 2 2 2
left_child=2 4 10 -4 -2 9 -7 -8 -9 -3 -1
right_child=1 5 3 -5 -6 6 7 8 -10 -11 -12
leaf_value=-6.1956850541982616e-06 0.00015647391773312142 -0.00022830598220480169 -0.000654755579181137 -0.00019899535513876333 -0.00014007898544150522 6.4730479661349456e-05 -2.4290269955435257e-05 3.266239053436092e-05 -5.4966913622229213e-06 -3.5522486244544198e-05 -0.0003068803787464276
leaf_weight=851 422 64 23 66 44 1183 3560 3120 8260 1428 25
leaf_count=851 422 64 23 66 44 1183 3560 3120 8260 1428 25
internal_value=0 2.27518e-06 -4.26296e-05 -0.000316776 0.000128473 -1.06335e-06 2.8907e-06 -2.00598e-06 4.9652e-06 -4.3792e-05 -1.47769e-05
internal_weight=0 18081 965 89 466 17615 16123 14940 11380 1492 876
internal_count=19046 18081 965 89 466 17615 16123 14940 11380 1492 876
is_linear=0
shrinkage=0.1


Tree=59
num_leaves=12
num_cat=0
split_feature=46 40 7 40 46 47 206 40 371 356 46
split_gain=0.000174805 0.000230308 0.000218381 0.000209403 0.000234356 0.000256089 0.000225609 0.000191482 0.000297095 0.000232603 0.000204549
threshold=0.99585361091580837 0.99144054742630539 0.98880307895135522 0.98761068616826575 0.98368573812571214 0.99176892787822968 0.96650877801300794 0.97668805189865637 0.98214096345288893 0.99368307340433326 0.9715463377481256
decision_type=2 2 2 2 2 2 2 2 2 2 2
left_child=3 -2 -3 4 5 7 -5 8 9 -1 -9
right_child=1 2 -4 6 -6 -7 -8 10 -10 -11 -12
leaf_value=0.00024312402552563334 6.8528025802086506e-05 0.00033659493550658231 5.177270625275949e-06 -0.00034364277463672419 3.2743255675026393e-05 -0.00033147489217905481 -1.5433229122814633e-05 -0.00019048204739629474 3.0478498576470984e-05 -5.0143190063042694e-05 -2.3548434215792593e-05
leaf_weight=28 745 20 3375 21 2410 24 7811 77 2171 793 1571
leaf_count=28 745 20 3375 21 2410 24 7811 77 2171 793 1571
internal_value=0 1.81784e-05 7.12966e-06 -5.04888e-06 7.42252e-06 -5.66131e-06 -1.63133e-05 -3.97607e-06 1.11005e-05 -4.01414e-05 -3.13481e-05
internal_weight=0 4140 3395 14906 7074 4664 7832 4640 2992 821 1648
internal_count=19046 4140 3395 14906 7074 4664 7832 4640 2992 821 1648
is_linear=0
shrinkage=0.1


Tree=60
num_leaves=12
num_cat=0
split_feature=46 80 1 331 268 80 46 85 70 80 46
split_gain=0.000164071 0.000825401 0.000481161 0.000262092 0.00023265 0.000211438 0.000351234 0.000350651 0.000209119 0.000167876 0.000291065
threshold=0.94115286755740313 0.94043470229131709 0.94108888707767002 0.96955280729753446 0.99545604319627945 0.95211578587716061 0.95482793572094715 0.95359907343054362 0.99237494577123164 0.96912400103834184 0.97410455468894896
decision_type=2 2 2 2 2 2 2 2 2 2 2
left_child=1 4 8 -4 -1 7 -7 -5 -2 -8 -11
right_child=2 -3 3 5 -6 6 9 -9 -10 10 -12
leaf_value=2.8854899898986809e-05 0.00030791514023330324 -0.00061484564592739429 -0.00011263138824976589 1.4482522331097211e-05 -0.00028236163159038244 -0.0001786517112800952 3.6897979593095581e-05 0.00022519696018538193 -2.0918317351325023e-06 -6.4324198807029761e-05 7.9251175799626344e-07
leaf_weight=169 73 26 205 280 28 110 1189 110 31 717 16108
leaf_count=169 73 26 205 280 28 110 1189 110 31 717 16108
internal_value=0 -8.52719e-05 1.01023e-06 -1.81491e-07 -1.53789e-05 1.06363e-06 -5.04009e-07 7.39148e-05 0.000215509 5.83825e-07 -1.98245e-06
internal_weight=0 223 18823 18719 197 18514 18124 390 104 18014 16825
internal_count=19046 223 18823 18719 197 18514 18124 390 104 18014 16825
is_linear=0
shrinkage=0.1


Tree=61
num_leaves=12
num_cat=0
split_feature=46 46 395 1 322 40 46 46 40 160 40
split_gain=0.000154087 0.000147219 0.000318078 0.000283561 0.000191299 0.000206369 0.000410785 0.00035341 0.000291979 0.000205551 0.000179452
threshold=0.99989877727938981 0.92657691281411447 0.99391753620615375 0.92165693082645594 0.9697513829315062 0.9564579235557582 0.96171573255490028 0.95748200756896951 0.96386077748856802 0.64604842009369634 0.99144054742630539
decision_type=2 2 2 2 2 2 2 2 2 2 2
left_child=1 2 -1 -3 9 7 10 -6 -8 -5 -7
right_child=-2 3 -4 4 5 6 8 -9 -10 -11 -12
leaf_value=-0.00048297843255568301 5.2405884890679473e-05 0.000322855811545095 -1.6135509536575734e-05 -2.5676025489106105e-05 2.2531717264781848e-05 -0.00016128163483612992 0.00011342720897110803 0.00023031018573500762 -1.0039964114157886e-06 -0.00015998350251570726 0.00015220063709421084
leaf_weight=20 545 27 54 594 432 210 226 101 16676 141 20
leaf_count=20 545 27 54 594 432 210 226 101 16676 141 20
internal_value=0 -1.54377e-06 -0.000142309 -9.78473e-07 -1.45366e-06 6.26199e-07 -1.28025e-06 6.19044e-05 5.26086e-07 -5.14411e-05 -0.000134022
internal_weight=0 18501 74 18427 18400 17665 17132 533 16902 735 230
internal_count=19046 18501 74 18427 18400 17665 17132 533 16902 735 230
is_linear=0
shrinkage=0.1


Tree=62
num_leaves=12
num_cat=0
split_feature=1 46 1 40 371 331 40 46 207 160 340
split_gain=0.000147847 0.000141694 0.000279158 0.000254958 0.000195058 0.00018262 0.000167289 0.000313951 0.000260543 0.000166038 0.000167434
threshold=0.99989961063583388 0.98914709335264839 0.99249901592206324 0.98438553615655 0.98214096345288893 0.98179263466423816 0.9564579235557582 0.96043706806028861 0.97042182518179432 0.3024970638246488 0.96415172335501242
decision_type=2 2 2 2 2 2 2 2 2 2 2
left_child=1 3 -3 4 9 -5 8 -8 -6 10 -1
right_child=-2 2 -4 5 6 -7 7 -9 -10 -11 -12
leaf_value=0.00025638786565136603 -3.4918148707071261e-05 3.3006703361945606e-05 -2.2857680709574642e-06 -0.00019043707314787234 4.7831373102237904e-05 -2.6983745378191189e-05 -0.00014682546670594584 1.3741122996791567e-05 0.00030404887643685057 -0.00010139565544565825 -1.7901283676940388e-05
leaf_weight=23 1140 3493 6254 70 405 2906 126 3630 44 268 687
leaf_count=23 1140 3493 6254 70 405 2906 126 3630 44 268 687
internal_value=0 2.22309e-06 1.03619e-05 -7.49976e-06 5.8952e-06 -3.08284e-05 1.52509e-05 8.3547e-06 7.29395e-05 -3.43306e-05 -9.01586e-06
internal_weight=0 17906 9747 8159 5183 2976 4205 3756 449 978 710
internal_count=19046 17906 9747 8159 5183 2976 4205 3756 449 978 710
is_linear=0
shrinkage=0.1


Tree=63
num_leaves=12
num_cat=0
split_feature=46 40 40 170 326 1 123 267 40 46 46
split_gain=0.000148998 0.000788374 0.00045315 0.000233671 0.000200425 0.000197521 0.000178724 0.000168701 0.000161847 0.000303869 0.000293538
threshold=0.94943199517404575 0.95421904143738356 0.95166919482947809 0.2708018296243398 0.97319850683778453 0.9436753371097103 0.96343002683905554 0.99653594876583285 0.97582657129881156 0.97248196054276537 0.97798371599538803
decision_type=2 2 2 2 2 2 2 2 2 2 2
left_child=1 5 3 6 -4 7 -2 -1 9 -6 -10
right_child=2 -3 4 -5 8 -7 -8 -9 10 -11 -12
leaf_value=4.7476601010523098e-05 0.00015353209047634664 -0.00065519954909437476 -6.2106972877470145e-05 4.5448301014922828e-06 -9.1623218532684102e-06 -0.00012186528374762904 0.00042875001360828593 -0.00021126025021658281 -6.1405995873781375e-05 6.6459690118595525e-05 8.8574681692796794e-07
leaf_weight=252 150 21 514 98 1108 146 28 28 797 1021 14883
leaf_count=252 150 21 514 98 1108 146 28 28 797 1021 14883
internal_value=0 -5.7053e-05 1.37119e-06 0.000128551 -5.44534e-07 -2.75669e-05 0.000196825 2.16029e-05 1.23227e-06 2.71036e-05 -2.28049e-06
internal_weight=0 447 18599 276 18323 426 178 280 17809 2129 15680
internal_count=19046 447 18599 276 18323 426 178 280 17809 2129 15680
is_linear=0
shrinkage=0.1


Tree=64
num_leaves=12
num_cat=0
split_feature=46 40 40 314 168 332 40 46 85 40 46
split_gain=0.000133144 0.000610926 0.000359253 0.00017812 0.000174314 0.000147571 0.0001542 0.000269399 0.000210502 0.000196813 0.00020885
threshold=0.94115286755740313 0.94253672360949825 0.93978649603224229 0.99354173610788632 0.28933502058486338 0.96858558737690148 0.95012009487085336 0.95482793572094715 0.94995657854405036 0.9601368146116992 0.9715463377481256
decision_type=2 2 2 2 2 2 2 2 2 2 2
left_child=1 -1 3 -2 -5 -4 8 -8 -7 -9 -11
right_child=2 -3 5 4 -6 6 7 9 -10 10 -12
leaf_value=-2.0686365116034722e-05 0.00042644056347489824 -0.00056489808358373529 -9.8511761666637143e-05 0.00024403884221101181 -8.8561001309874268e-05 5.1484407148056162e-06 -0.00012713724892780948 7.3729607165923209e-05 0.00019204902735008998 -4.6784764502187201e-05 1.8928375962480167e-06
leaf_weight=200 25 23 151 40 26 154 166 363 99 930 16869
leaf_count=200 25 23 151 40 26 154 166 363 99 930 16869
internal_value=0 -7.68158e-05 9.10053e-07 0.000199121 0.000113015 -5.28535e-08 7.47281e-07 -3.2303e-07 7.82835e-05 8.36047e-07 -6.50573e-07
internal_weight=0 223 18823 91 66 18732 18581 18328 253 18162 17799
internal_count=19046 223 18823 91 66 18732 18581 18328 253 18162 17799
is_linear=0
shrinkage=0.1


Tree=65
num_leaves=12
num_cat=0
split_feature=40 126 45 247 168 190 80 40 209 127 167
split_gain=0.000128351 0.000345846 0.000207625 0.000183061 0.000156579 0.000242451 0.000125482 0.000119944 0.000174617 0.000140273 0.000122917
threshold=0.98133235408682395 0.98120215783298337 0.98409673054832847 0.97448165723728841 0.81365797592078859 0.12007862888666325 0.94946450194104537 0.97145907004401533 0.97437062530339613 0.96679510231350496 0.86036147109299221
decision_type=2 2 2 2 2 2 2 2 2 2 2
left_child=1 4 3 -2 7 -6 -3 8 -1 -9 -10
right_child=2 6 -4 -5 5 -7 -8 9 10 -11 -12
leaf_value=-3.8148437429149048e-06 -0.00033333118397942081 0.00030290330891148188 -6.6252785746907949e-07 -3.5972150590343622e-05 -0.00029523640376915547 -1.6486449867349537e-05 5.0726276210116589e-05 -0.00022699449363051719 7.1140734407903482e-05 -1.802028900231217e-05 -0.00013020015429674459
leaf_weight=1360 21 20 12717 1464 46 97 1472 33 578 1206 32
leaf_count=1360 21 20 12717 1464 46 97 1472 33 578 1206 32
internal_value=0 1.40563e-05 -4.79429e-06 -4.01772e-05 -3.77046e-06 -0.000106154 5.41067e-05 7.9198e-07 1.61242e-05 -2.35862e-05 6.05786e-05
internal_weight=0 4844 14202 1485 3352 143 1492 3209 1970 1239 610
internal_count=19046 4844 14202 1485 3352 143 1492 3209 1970 1239 610
is_linear=0
shrinkage=0.1


Tree=66
num_leaves=12
num_cat=0
split_feature=46 7 40 1 324 160 350 40 46 7 1
split_gain=0.000119156 0.000175078 0.000161294 0.000150315 0.000121537 0.000180513 0.000138394 0.000129243 0.000325639 0.000218491 0.000143508
threshold=0.99680161456973881 0.99102025069130006 0.9761241700432729 0.99733321484458781 0.97192952011689504 0.3002547515516984 0.98222386624396141 0.96895032405142734 0.9715463377481256 0.96689488774278121 0.95808782006656046
decision_type=2 2 2 2 2 2 2 2 2 2 2
left_child=3 -2 -3 4 5 6 -1 9 -9 10 -6
right_child=1 2 -4 -5 7 -7 -8 8 -10 -11 -12
leaf_value=0.00022943567959009671 0.00025078613743971799 0.00019024027529107677 1.2584145894916477e-05 -2.5004444559175052e-05 3.5956039662800062e-05 -9.5421952521311412e-05 -1.1499875066864049e-05 -8.7583573546420133e-05 3.2281396718728993e-06 8.6020724772638857e-05 -4.7829550742593944e-05
leaf_weight=25 32 52 2967 2692 506 317 514 410 10699 489 343
leaf_count=25 32 52 2967 2692 506 317 514 410 10699 489 343
internal_value=0 1.81104e-05 1.56441e-05 -3.45451e-06 9.06348e-07 -3.55418e-05 -3.24757e-07 3.41295e-06 -1.23449e-07 3.27746e-05 2.10627e-06
internal_weight=0 3051 3019 15995 13303 856 539 12447 11109 1338 849
internal_count=19046 3051 3019 15995 13303 856 539 12447 11109 1338 849
is_linear=0
shrinkage=0.1


Tree=67
num_leaves=12
num_cat=0
split_feature=46 164 40 186 46 40 46 40 327 46 40
split_gain=0.000119584 0.000259547 0.000192518 0.000195792 0.000143779 0.000174557 0.000196523 0.000209865 0.000170794 0.000161484 0.000190472
threshold=0.92657691281411447 0.087804377763007729 0.93033791858728743 0.095179417414478759 0.94115286755740313 0.94661486747850743 0.95609600094224423 0.9601368146116992 0.97300499991093803 0.96845458661797024 0.9745556190434489
decision_type=2 2 2 2 2 2 2 2 2 2 2
left_child=1 -1 3 -2 -4 -6 -7 8 -8 -9 -11
right_child=2 -3 4 -5 5 6 7 9 -10 10 -12
